#############################################################################
## Copyright (c) 1996, Carnegie Mellon University, Cambridge University,
## Ronald Rosenfeld and Philip Clarkson
## Version 3, Copyright (c) 2006, Carnegie Mellon University 
## Contributors includes Wen Xu, Ananlada Chotimongkol, 
## David Huggins-Daines, Arthur Chan and Alan Black 
#############################################################################
=============================================================================
===============  This file was produced by the CMU-Cambridge  ===============
===============     Statistical Language Modeling Toolkit     ===============
=============================================================================
This is a 3-gram language model, based on a vocabulary of 1731 words,
  which begins "</s>", "<s>", "ACHACHI"...
This is a CLOSED-vocabulary model
  (OOVs eliminated from training data and are forbidden in test data)
Good-Turing discounting was applied.
1-gram frequency of frequency : 52 
2-gram frequency of frequency : 957 1361 894 376 104 134 117 
3-gram frequency of frequency : 1898 2508 1290 528 152 234 175 
1-gram discounting ratios : 
2-gram discounting ratios : 
3-gram discounting ratios : 
This file is in the ARPA-standard format introduced by Doug Paul.

p(wd3|wd1,wd2)= if(trigram exists)           p_3(wd1,wd2,wd3)
                else if(bigram w1,w2 exists) bo_wt_2(w1,w2)*p(wd3|wd2)
                else                         p(wd3|w2)

p(wd2|wd1)= if(bigram exists) p_2(wd1,wd2)
            else              bo_wt_1(wd1)*p_1(wd2)

All probs and back-off weights (bo_wt) are given in log10 form.

Data formats:

Beginning of data mark: \data\
ngram 1=nr            # number of 1-grams
ngram 2=nr            # number of 2-grams
ngram 3=nr            # number of 3-grams

\1-grams:
p_1     wd_1 bo_wt_1
\2-grams:
p_2     wd_1 wd_2 bo_wt_2
\3-grams:
p_3     wd_1 wd_2 wd_3 

end of data mark: \end\

\data\
ngram 1=1731
ngram 2=5298
ngram 3=8449

\1-grams:
-0.6564 </s>	-3.8695
-0.6563 <s>	-3.6950
-3.4035 ACHACHI	-1.1705
-3.9350 ACHACHICALANA	-0.7946
-3.4035 ACHACHILA	-1.1926
-3.7889 ACHACHILANITHWA	-0.8460
-3.4035 ACHAKU	-1.1926
-3.6340 ACHUMANINA	-1.0957
-3.4035 ACHUQA	-1.1926
-3.2723 AJANU	-1.3228
-3.2026 AJLLIÑA	-1.3541
-3.2723 AKA	-1.3228
-3.4035 AKANA	-1.1925
-3.4035 AKANAKA	-1.1926
-3.3330 AKAXA	-1.2716
-3.4035 AKJA	-1.1926
-3.7889 ALALAWA	-0.8460
-4.3330 ALASISKIWA	-0.4938
-3.3787 ALASITAYA	-1.2138
-3.2026 ALAXA	-1.3685
-3.0005 ALAYA	-1.5633
-3.1569 ALAÑA	-1.4228
-4.1569 ALAÑATAKI	-0.5907
-3.6340 ALAÑÄNITI	-0.9709
-3.7309 ALCALDIARU	-1.0056
-4.1569 ALCALDIARUWA	-0.6699
-4.6340 ALIAGA	-0.3689
-3.4035 ALIQATA	-1.1922
-3.4035 ALIRI	-1.1926
-4.0319 ALJAÑA	-0.7368
-3.4035 ALJIRI	-1.1922
-3.4035 ALLCHHI	-1.1923
-3.4035 ALLPACHU	-1.1926
-3.4035 ALPAQA	-1.1924
-4.6340 ALTHA	-0.3689
-3.2026 ALT’AÑA	-1.3541
-2.9619 ALWA	-1.5980
-3.9350 ALWAXA	-0.7943
-3.4299 AMARU	-1.1703
-3.7309 AMP	-0.9326
-3.3330 AMPARA	-1.2715
-3.7309 AMPARANAKANITAWA	-0.8918
-4.0319 AMTAÑA	-0.7367
-4.3330 AMUKISKAÑAWA	-0.4938
-3.4579 AMUKT’AM	-1.1468
-4.6340 AMUKT’AMTI	-0.3689
-3.4299 AMUKT’APXAM	-1.1470
-3.4579 AMUKT’APXAMTI	-1.1222
-3.6798 AMUYKTHTI	-0.9331
-3.9350 AMUYUNAKA	-0.7948
-3.4035 ANATA	-1.1926
-4.1569 ANATAPKI	-0.5907
-4.1569 ANATAPKITI	-0.5907
-4.1569 ANATAPKTA	-0.5907
-4.1569 ANATAPKTAN	-0.5907
-4.1569 ANATAPKTANTI	-0.5907
-4.1569 ANATAPKTATI	-0.5907
-4.1569 ANATAPKTHA	-0.5907
-4.1569 ANATAPKTHTI	-0.5907
-3.7889 ANATAPXARAKIWA	-0.8460
-4.1569 ANATAPXITI	-0.5907
-4.0319 ANATAPXIWA	-0.6699
-4.1569 ANATAPXTANTI	-0.5907
-3.6798 ANATAPXTANWA	-0.9331
-4.1569 ANATAPXTATI	-0.5907
-3.6340 ANATAPXTAWA	-0.9709
-4.1569 ANATAPXTHTI	-0.5907
-3.6798 ANATAPXTHWA	-0.9331
-3.7889 ANATASKTHWA	-0.8460
-3.4579 ANATAÑA	-1.1697
-4.3330 ANATAÑÄNI	-0.4938
-3.0005 ANATIRI	-1.5539
-4.1569 ANATITI	-0.5907
-3.6340 ANATIWA	-0.9709
-4.1569 ANATKI	-0.5907
-4.1569 ANATKITI	-0.5907
-4.1569 ANATKTA	-0.5907
-4.1569 ANATKTAN	-0.5907
-4.1569 ANATKTANTI	-0.5907
-4.1569 ANATKTATI	-0.5907
-4.1569 ANATKTHA	-0.5907
-4.1569 ANATKTHTI	-0.5907
-4.1569 ANATTANTI	-0.5907
-3.6798 ANATTANWA	-0.9331
-4.1569 ANATTATI	-0.5907
-3.6340 ANATTAWA	-0.9709
-4.1569 ANATTHA	-0.5907
-4.1569 ANATTHTI	-0.5907
-3.6798 ANATTHWA	-0.9331
-3.4035 ANCHA	-1.1926
-2.8211 ANGELICA	-1.7234
-3.4579 ANQA	-1.1468
-3.9350 ANQANA	-0.7948
-3.2026 ANSATATAÑA	-1.3541
-3.4035 ANTI	-1.1924
-3.2026 ANTUTAÑA	-1.3541
-3.1288 ANU	-1.4474
-3.7309 ANUNITATI	-0.8918
-3.7889 ANUNITHWA	-0.8460
-4.0319 APARAÑA	-0.7368
-3.4035 APILLA	-1.1926
-3.7889 APITU	-0.8460
-3.3787 APNAQIRI	-1.2138
-3.6340 APNAQIRIWA	-0.9709
-4.3330 APNAQTHA	-0.4938
-3.2026 APTAÑA	-1.3541
-4.3330 ARKASKIWA	-0.4938
-4.0319 ARKAÑA	-0.7368
-4.3330 ARMASIÑAKITI	-0.4938
-4.0319 ARMAÑA	-0.7368
-4.0319 ARNAQAÑA	-0.7368
-3.4299 ARSUM	-1.1703
-3.4299 ARSUPXAM	-1.1470
-3.8558 ARSUWIRUSA	-0.8459
-4.0319 ARSUÑA	-0.7365
-3.3787 ARU	-1.2137
-2.8347 ARUMA	-1.7288
-3.7309 ARUMAKIPANA	-0.8918
-3.3787 ARUMANTHI	-1.1928
-3.4035 ARUMATI	-1.1705
-3.4035 ARUMAWA	-1.1705
-4.3330 ARUNAKARU	-0.4938
-4.3330 ARUNTASISKIWA	-0.4938
-3.1569 ARUNTAÑA	-1.4102
-3.4035 ARXATIRI	-1.1925
-3.6798 ARXATIRIWA	-0.9331
-3.7889 ARÜTWA	-0.8915
-3.7309 ASILORU	-1.0056
-4.1569 ASILORUWA	-0.6699
-3.4035 ASIRU	-1.1926
-4.0319 ASJARIRI	-0.7366
-3.2916 ASKI	-1.3385
-3.6798 ASPIAZUNA	-1.0055
-3.4299 ASU	-1.1700
-4.3330 ASXARIRI	-0.4938
-3.3787 ATAMIRI	-1.2137
-2.8347 ATI	-1.7248
-4.3330 ATIPASKIWA	-0.4938
-4.0319 ATIPAÑA	-0.7368
-4.6340 ATTA	-0.3689
-3.4035 ATÜRU	-1.1920
-3.4035 AWATIRI	-1.1924
-3.4035 AWICHA	-1.1926
-3.7889 AWICHANITHWA	-0.8460
-3.4035 AWILA	-1.1926
-3.3787 AWKCH’I	-1.2137
-3.4035 AWKI	-1.1925
-4.0319 AWKIPAXA	-0.7366
-4.3330 AWKIRUSA	-0.4938
-3.2026 AWQA	-1.3683
-3.4035 AWTI	-1.1919
-4.0319 AWTJAÑA	-0.7364
-3.7889 AWTJITU	-0.8460
-3.6340 AWTU	-1.0056
-3.1716 AXSARIRI	-1.3967
-3.4035 AYCHA	-1.1926
-3.2026 AYNACHA	-1.3685
-4.3330 AYNIKIWA	-0.4938
-3.4035 AÑATHUYA	-1.1705
-3.7889 BENINKIRÏTHWA	-0.8460
-3.6340 CALACOTONA	-1.0957
-4.0319 CALIXTONA	-0.7367
-4.1569 CARLAKI	-0.5907
-4.1569 CARLAKITI	-0.5907
-4.1569 CARLAKTA	-0.5907
-4.1569 CARLAKTATI	-0.5907
-4.0319 CARLAKTHA	-0.6699
-4.1569 CARLAKTHTI	-0.5907
-4.1569 CARLATATI	-0.5907
-4.0319 CARLATAWA	-0.6699
-4.1569 CARLATHTI	-0.5907
-4.1569 CARLATHWA	-0.5907
-4.1569 CARLATI	-0.5907
-4.0319 CARLAWA	-0.6699
-4.1569 CENTERARUWA	-0.6699
-3.0005 CHACHA	-1.5540
-3.4035 CHAKA	-1.1926
-4.3330 CHALA	-0.4938
-3.4035 CHALLWA	-1.1705
-3.4035 CHARA	-1.1926
-3.6340 CHATIYAÑA	-1.0049
-3.3787 CHAYRU	-1.2336
-4.3330 CHHALLA	-0.4938
-4.3330 CHHAMA	-0.4938
-4.0319 CHHAQHAÑA	-0.7368
-3.4035 CHHICHHILLANKHA	-1.1926
-4.3330 CHHICHHILLANKHANAKA	-0.4938
-3.4299 CHHICHHIRANKHA	-1.1703
-3.3787 CHHIJCHHI	-1.2138
-3.4035 CHHIJCHHISKITI	-1.1705
-3.3787 CHHIJCHHISKIWA	-1.2138
-4.0319 CHHIJCHHIÑA	-0.7365
-3.1569 CHHIJLLAÑA	-1.4228
-3.3552 CHHIPU	-1.2335
-3.6798 CHHIPUNAKANIWA	-0.9331
-3.4035 CHHIQHANQARA	-1.1925
-3.4299 CHHIRI	-1.1470
-3.3787 CHHIWCHHI	-1.2138
-3.9350 CHHÜJTAYIRIWA	-0.7935
-4.3330 CHICHI	-0.4938
-2.6702 CHIKA	-1.8849
-3.4035 CHIKATA	-1.1926
-3.9350 CHIKAXA	-0.7948
-3.9350 CHIKÜRUXA	-0.7919
-3.4035 CHINUQA	-1.1926
-3.7309 CHIQATI	-0.8918
-3.7309 CHIQAWA	-0.8918
-3.1426 CHUKI	-1.4354
-3.1868 CHUPIKA	-1.3825
-4.0319 CHURAÑA	-0.7368
-3.3787 CHURI	-1.2137
-3.4579 CHURITA	-1.1469
-3.1288 CHUYMA	-1.4356
-4.0319 CHUYMANIWA	-0.7355
-3.1716 CH’AJA	-1.3965
-3.1025 CH’AKHA	-1.4709
-3.1288 CH’AKUÑA	-1.4476
-4.3330 CH’ALLA	-0.4938
-3.4035 CH’AMA	-1.1925
-3.2026 CH’AMAMPI	-1.3685
-3.6340 CH’AMAWA	-0.9709
-3.9350 CH’AMUÑA	-0.7948
-3.4035 CH’APAQA	-1.1925
-3.4035 CH’APHAQA	-1.1926
-3.4035 CH’ARKHI	-1.1926
-3.4299 CH’ASKA	-1.1703
-3.4035 CH’AXWAKU	-1.1925
-3.1288 CH’IKHI	-1.4472
-4.3330 CH’IKHIPXITI	-0.4938
-4.0319 CH’IKHIPXIWA	-0.6699
-4.3330 CH’IKHISI	-0.4938
-3.7889 CH’IKHITHWA	-0.8460
-4.1569 CH’IKHITI	-0.5907
-3.6798 CH’IKHIWA	-0.9331
-3.2026 CH’IQA	-1.3541
-3.4035 CH’IWI	-1.1926
-3.4035 CH’IWITI	-1.1705
-3.4035 CH’IWIWA	-1.1926
-3.4035 CH’IXI	-1.1926
-3.0005 CH’IYARA	-1.5629
-3.1288 CH’UKURI	-1.4354
-3.0005 CH’UMPHI	-1.5811
-3.7889 CH’UMPHINAKAWA	-0.8460
-4.3330 CH’UMPHIWA	-0.4938
-3.4035 CH’UQI	-1.1926
-3.3787 CH’USA	-1.2136
-3.4035 CH’USPI	-1.1926
-2.9905 CH’UXÑA	-1.5633
-3.9350 CH’UXÑAMPIWA	-0.7368
-3.9350 CH’UXÑAWA	-0.7368
-3.4035 CH’UÑU	-1.1926
-3.7889 COCHABAMBATÄTHWA	-0.8460
-3.7309 CONSERVATORIORU	-1.0056
-4.1569 CONSERVATORIORUWA	-0.6699
-4.1569 COPACABANANA	-0.6699
-3.6798 COPACABANARUWA	-0.9705
-4.1569 COTA	-0.6699
-4.1569 COTANA	-0.6697
-3.4879 CRUZ	-1.1468
-4.3330 CUADRATRACK	-0.5907
-4.1569 DANIEL	-0.6699
-4.3330 DEL	-0.5907
-3.9350 FABRICIOWA	-0.7368
-3.6798 FRICASE	-1.1703
-4.1569 FUTBOL	-0.6699
-3.7309 GIMNASIORU	-1.0056
-3.9350 GIMNASIORUWA	-0.8455
-4.0319 GUITARRA	-0.7368
-3.4035 ICHUMAMA	-1.1926
-3.4035 ICHUTATA	-1.1926
-3.4035 ICHUWAWA	-1.1925
-3.4299 IJMA	-1.1470
-3.8558 IKISAWA	-0.8459
-4.3330 IKISISKIWA	-0.4938
-3.2026 IKITATAÑA	-1.3685
-3.7309 IKIWA	-0.9330
-4.0319 IKIÑA	-0.7368
-3.6340 IKKITI	-0.9709
-4.0319 IKTHA	-0.7367
-3.7309 IKTHWA	-0.8918
-2.8347 ILLAPA	-1.7244
-3.2026 ILLAPAÑA	-1.3541
-3.2026 ILLAPJAÑA	-1.3685
-3.4035 ILLAPÜRU	-1.1705
-4.0319 IMANTAÑA	-0.7368
-4.0319 IMAÑA	-0.7368
-3.7309 INA	-0.9330
-3.4035 INAMAYA	-1.1926
-4.0319 INTERNETANIKTHTI	-0.6699
-3.4299 INTI	-1.1699
-3.4299 IPA	-1.1703
-3.4879 IPAJAXA	-1.1463
-3.4035 IPALA	-1.1926
-3.4299 IPI	-1.1703
-3.4035 IRAQT’ITAYA	-1.1925
-3.4299 IRNAQAWI	-1.1700
-4.0319 IRNAQAÑA	-0.6699
-3.1426 IRPIRI	-1.4346
-3.1288 ISI	-1.4474
-4.0319 ISINI	-0.7363
-4.1569 ISLA	-0.6699
-3.3787 ISPILLU	-1.2137
-3.7889 ISPILLUNAKAMAXA	-0.8917
-3.4299 IST’AM	-1.1703
-3.4035 IST’AMTI	-1.1870
-3.4299 IST’APXAM	-1.1703
-3.4299 IST’APXAMTI	-1.1647
-4.3330 IST’ASKIWA	-0.4938
-4.0319 IST’AÑA	-0.7368
-3.4035 IWIJA	-1.1926
-3.4035 IWISA	-1.1926
-3.3787 IXWIRI	-1.2138
-3.7309 IYAWA	-0.9322
-4.3330 JACHA	-0.4938
-4.3330 JACHASKIWA	-0.4938
-4.3330 JACHAYAÑAKITI	-0.4938
-4.0319 JACHAÑA	-0.7368
-3.9350 JACHT’APUNIWA	-0.7946
-2.9619 JACH’A	-1.5983
-3.7889 JACH’ANAKAWA	-0.8460
-4.3330 JACH’APXTHTI	-0.4938
-4.1569 JACH’APXTHWA	-0.5907
-4.1569 JACH’ATHTI	-0.5907
-4.1569 JACH’ATHWA	-0.5907
-3.7309 JACH’ATI	-0.8918
-3.4579 JACH’AWA	-1.1222
-4.0319 JAKASIRITHWA	-0.7367
-3.4035 JAKASTHA	-1.1705
-4.0319 JAKAÑA	-0.7368
-3.4035 JAKHU	-1.1705
-3.3552 JAKHURI	-1.2340
-3.6798 JAKHUWIPAXA	-0.9331
-4.0319 JAKHUÑA	-0.7368
-3.3787 JAK’A	-1.2138
-3.7889 JAK’ANA	-0.8915
-3.4035 JAK’U	-1.1926
-3.0005 JALANTA	-1.5543
-3.4035 JALJTATA	-1.1922
-2.9528 JALLU	-1.6145
-3.4035 JALLUSKITI	-1.1926
-3.4035 JALLUSKIWA	-1.1925
-4.0319 JALLUÑA	-0.7368
-3.2026 JALSU	-1.3683
-4.3330 JAMACH’IWA	-0.4938
-4.0319 JAMP’ATIÑA	-0.7368
-3.4035 JAMP’ATU	-1.1926
-3.4035 JAMUQIRI	-1.1926
-1.9856 JANI	-2.5649
-4.3330 JANIPUNIWA	-0.4938
-2.2538 JANITI	-2.3852
-2.0191 JANIWA	-2.5889
-3.2026 JANK’A	-1.3685
-3.0005 JANK’AKI	-1.5543
-2.8706 JANQ’U	-1.7100
-3.4035 JANQ’ULLA	-1.1922
-3.1288 JAQI	-1.4467
-3.4035 JAQICHATA	-1.1926
-3.9350 JAQINA	-0.7948
-3.4579 JAQIWA	-1.1222
-3.4035 JARARANKHU	-1.1926
-3.4035 JARU	-1.1926
-3.4035 JASA	-1.1926
-4.0319 JASAKI	-0.6699
-3.6798 JASAWA	-0.9331
-4.0319 JAT’IÑA	-0.7367
-3.7309 JAWIRARUWA	-0.9327
-3.2026 JAWQ’JAÑA	-1.3541
-4.0319 JAWSAÑA	-0.7368
-3.4299 JAXU	-1.1470
-3.3787 JAYA	-1.2137
-3.7309 JAYANA	-0.9328
-3.7309 JAYATI	-0.8918
-3.7309 JAYAWA	-0.8918
-3.4035 JAYLLIRI	-1.1921
-4.3330 JAYLLISKIWA	-0.4938
-4.0319 JAYLLIÑA	-0.7368
-2.9180 JAYP’U	-1.6455
-3.7309 JAYP’UKIPANA	-0.8918
-3.9350 JAYP’URUXA	-0.7915
-3.3787 JAYRA	-1.2137
-4.3330 JAYRAPXTATI	-0.4938
-4.0319 JAYRAPXTAWA	-0.6699
-3.6798 JAYRASISKTAWA	-0.9331
-4.0319 JAYRASIÑA	-0.7368
-4.1569 JAYRATATI	-0.5907
-3.5548 JAYRATAWA	-1.0379
-4.3330 JAYTAMTI	-0.4938
-3.4035 JAYU	-1.1926
-4.3330 JICHHAXA	-0.4938
-3.4035 JICHHÜRU	-1.1705
-4.3330 JICHÜRU	-0.4938
-3.4035 JIKHANI	-1.1926
-3.8558 JIKISIPXTHA	-0.8459
-3.7309 JIKISIÑAJAWA	-0.8918
-3.7309 JIKISIÑKAMA	-0.8918
-3.3330 JILA	-1.2892
-3.7889 JILANAKANITATI	-0.8460
-3.7889 JILANITHWA	-0.8460
-3.5200 JILATA	-1.0956
-4.0319 JILATAJAMPIWA	-0.7368
-3.6798 JILATAJAWA	-0.9708
-4.0319 JILAÑA	-0.7365
-3.7889 JILÏRI	-0.8915
-3.3787 JINCHU	-1.2137
-2.7532 JISA	-1.8302
-4.0319 JISKT’AÑA	-0.7368
-2.9619 JISK’A	-1.5985
-3.7309 JISK’AWA	-0.8918
-3.8558 JIST’ANTATA	-0.8459
-4.3330 JIST’ANTATANA	-0.4938
-3.1569 JIST’ANTAÑA	-1.3969
-3.2026 JIST’ARAÑA	-1.3685
-2.9350 JIWA	-1.6608
-2.9619 JIWAKI	-1.6070
-4.3330 JIWAKIPXTANTI	-0.4938
-4.1569 JIWAKIPXTANWA	-0.5907
-4.1569 JIWAKITANTI	-0.5907
-4.1569 JIWAKITANWA	-0.5907
-3.5548 JIWAKITHWA	-1.0379
-3.4879 JIWAKIWA	-1.0959
-3.4035 JIWASA	-1.1705
-3.4035 JIWASANAKA	-1.1705
-2.5371 JIWASANAKAXA	-2.0563
-3.7309 JIWASANKITI	-0.8918
-3.4879 JIWASANKIWA	-1.0959
-3.7309 JIWASANKKITI	-0.8918
-2.5134 JIWASAXA	-2.0728
-4.0319 JIWAÑA	-0.7368
-3.3552 JIWT’AYIRI	-1.2339
-4.0319 JIWXÄ	-0.7366
-3.4035 JUKU	-1.1926
-3.4035 JUKUMARI	-1.1926
-3.4035 JUK’A	-1.1926
-3.6340 JUK’AMPI	-1.0049
-3.4035 JUMA	-1.1926
-3.2723 JUMANAKA	-1.3228
-2.5302 JUMANAKAXA	-2.0616
-3.6798 JUMANKITI	-0.9331
-3.7309 JUMANKIWA	-0.8918
-3.7309 JUMANKKITI	-0.8918
-3.7309 JUMASA	-0.9330
-2.8706 JUMASTI	-1.6767
-2.4061 JUMAXA	-2.1702
-3.7309 JUMP’IWA	-0.9331
-2.9712 JUNT’U	-1.5985
-3.4035 JUNT’USKITI	-1.1926
-3.4035 JUNT’USKIWA	-1.1926
-3.4035 JUNT’UTI	-1.1926
-3.2723 JUNT’UWA	-1.3065
-3.4035 JUNT’ÜMA	-1.1705
-3.4035 JUPA	-1.1926
-3.4035 JUPANAKA	-1.1926
-2.5302 JUPANAKAXA	-2.0640
-3.7309 JUPANKITI	-0.8918
-3.7309 JUPANKIWA	-0.8918
-3.7309 JUPANKKITI	-0.8918
-2.2448 JUPAXA	-2.3214
-3.4035 JUPHA	-1.1926
-3.4035 JUQ’ARA	-1.1926
-3.4035 JURPÜRU	-1.1925
-3.4299 JUTAM	-1.1703
-3.4035 JUTAMTI	-1.1870
-4.3330 JUTANI	-0.4938
-3.4299 JUTAPXAM	-1.1470
-3.4299 JUTAPXAMTI	-1.1647
-4.0319 JUTAÑA	-0.7368
-3.2026 JUTIRI	-1.3685
-3.4035 JUYKHU	-1.1926
-3.2190 JUYPHI	-1.3679
-3.3787 KALLACHI	-1.1928
-3.6798 KAMISAKI	-0.9331
-4.3330 KANKA	-0.4938
-4.6340 KAREN	-0.3689
-4.6340 KARLAKI	-0.3689
-4.6340 KARLAKITI	-0.3689
-4.6340 KARLAKTA	-0.3689
-4.6340 KARLAKTAN	-0.3689
-4.6340 KARLAKTANTI	-0.3689
-4.6340 KARLAKTATI	-0.3689
-4.6340 KARLAKTHA	-0.3689
-4.6340 KARLAKTHTI	-0.3689
-4.6340 KARLAPKTA	-0.3689
-4.6340 KARLAPKTHA	-0.3689
-4.6340 KARLAPXTHWA	-0.3689
-4.6340 KARLATANTI	-0.3689
-4.6340 KARLATANWA	-0.3689
-4.6340 KARLATATI	-0.3689
-4.3330 KARLATAWA	-0.4938
-4.6340 KARLATHTI	-0.3689
-4.6340 KARLATHWA	-0.3689
-4.6340 KARLATI	-0.3689
-4.3330 KARLAWA	-0.4938
-3.4035 KATARI	-1.1924
-3.9350 KATUQIRIXA	-0.7948
-2.7475 KAWKI	-1.8089
-3.6798 KAWKINKIRÏSA	-0.9331
-3.6798 KAWKINKIRÏTASA	-0.9331
-3.4579 KAWKINSA	-1.1701
-3.4035 KAWKIRI	-1.1926
-3.6798 KAWKIRUSA	-0.9708
-3.4299 KAYA	-1.1703
-3.4035 KAYU	-1.1926
-4.3330 KAYUJAWA	-0.4938
-3.7309 KAYUJAXA	-0.9329
-3.7309 KAYUNI	-0.9708
-3.9350 KAYUNIWA	-0.7947
-4.3330 KAYUPAWA	-0.4938
-3.4035 KHAKHA	-1.1924
-4.3330 KHANKHA	-0.4938
-3.4035 KHAYA	-1.1926
-3.3787 KHAYANA	-1.2130
-3.4035 KHAYANAKA	-1.1921
-3.7889 KHAYASTI	-0.8460
-3.7309 KHAYAXA	-0.9330
-3.9350 KHITHÏPXTSA	-0.7946
-2.8416 KHITI	-1.7155
-3.7889 KHITIMPISA	-0.8915
-4.0319 KHITINAKAPXTHSA	-0.7362
-3.5548 KHITINKISA	-1.0379
-3.7309 KHITISA	-0.9300
-3.4299 KHITÏTSA	-1.2524
-3.4035 KHUCHHI	-1.1924
-4.3330 KHUCHHUSKIWA	-0.4938
-3.4035 KHULLU	-1.1924
-3.4035 KHUNU	-1.1926
-3.4035 KHUNUSKITI	-1.1926
-3.4035 KHUNUSKIWA	-1.1926
-4.0319 KHUNUÑA	-0.7368
-3.4035 KHURI	-1.1926
-4.0319 KHUYUÑA	-0.7368
-3.2026 KILLIÑA	-1.3541
-3.1569 KILLT’AÑA	-1.4099
-2.2224 KIMSA	-2.3095
-2.8558 KIMSANI	-1.6946
-3.1426 KIMSAQALLQU	-1.4254
-2.9264 KIMSAQALLQUNI	-1.6235
-3.3787 KIMSAQALLQÜRI	-1.2137
-3.3787 KIMSÏRI	-1.2138
-4.1569 KUKA	-0.6699
-3.6798 KULIRASKIWA	-0.9331
-3.7309 KULIRASKTHWA	-0.8918
-3.3787 KULLAKA	-1.2138
-3.6798 KULLAKAJAMPI	-0.9708
-3.4299 KULLI	-1.1703
-2.6254 KUNA	-1.9441
-3.3787 KUNAMPISA	-1.1928
-3.3787 KUNAPACHA	-1.1928
-3.1025 KUNAS	-1.4586
-2.6128 KUNASA	-2.0006
-3.4879 KUNATA	-1.0959
-4.3330 KUNATIXA	-0.4938
-3.4035 KUNAWSA	-1.1925
-3.1288 KUNJAMA	-1.4472
-4.0319 KUNJAMASA	-0.7368
-3.3787 KUNKA	-1.2132
-3.7309 KUNKAPAXA	-0.9330
-2.9808 KUNSA	-1.6152
-3.2026 KUPI	-1.3685
-2.8278 KURMI	-1.7310
-4.6340 KURMITI	-0.3689
-3.4035 KURMIWA	-1.1926
-3.4035 KURMÜRU	-1.1705
-3.4035 KURURU	-1.1925
-4.6340 KURUSA	-0.3689
-3.7309 KUSA	-0.9330
-3.1426 KUSI	-1.4352
-4.0319 KUSISIÑA	-0.7368
-3.3787 KUTI	-1.2138
-4.0319 KUTIYAÑA	-0.7368
-4.1569 KWONDO	-0.7367
-3.2026 K’ACHA	-1.3683
-3.0005 K’ACHAKI	-1.5633
-3.4035 K’ALLA	-1.1926
-4.3330 K’ANK’A	-0.4938
-3.4035 K’ARA	-1.1926
-3.2538 K’ARI	-1.3365
-4.0319 K’ARISIÑA	-0.7368
-3.3787 K’AWNA	-1.2133
-3.4035 K’AYRA	-1.1705
-3.6340 K’ISA	-1.0375
-3.4035 K’ISIMIRA	-1.1705
-3.4035 K’ULLU	-1.1925
-3.4299 K’UMARA	-1.1470
-3.2026 K’UMT’AÑA	-1.3685
-3.4299 K’UMU	-1.1703
-3.4035 K’UTI	-1.1924
-2.7149 LA	-1.8252
-2.9350 LAKA	-1.6235
-3.1288 LAPAKA	-1.4466
-4.3330 LAPAQA	-0.4938
-3.3787 LAPHI	-1.1928
-3.9350 LAPHINI	-0.7948
-3.4035 LAP’A	-1.1926
-3.4035 LAQUSI	-1.1926
-3.4035 LAQ’A	-1.1925
-3.4035 LAQ’U	-1.1705
-3.4035 LARAMA	-1.1921
-3.7309 LARAMAWA	-0.8918
-3.1288 LARI	-1.4476
-3.6340 LARIJAXA	-1.0056
-4.1569 LARKI	-0.5907
-4.1569 LARKITI	-0.5907
-4.1569 LARKTA	-0.5907
-4.1569 LARKTAN	-0.5907
-4.1569 LARKTANTI	-0.5907
-4.0319 LARKTATI	-0.6699
-4.1569 LARKTHA	-0.5907
-4.1569 LARKTHTI	-0.5907
-4.1569 LARTANTI	-0.5907
-4.1569 LARTANWA	-0.5907
-4.1569 LARTATI	-0.5907
-4.1569 LARTAWA	-0.5907
-4.1569 LARTHTI	-0.5907
-4.1569 LARTHWA	-0.5907
-4.1569 LARUPKI	-0.5907
-4.1569 LARUPKITI	-0.5907
-4.1569 LARUPKTA	-0.5907
-4.1569 LARUPKTAN	-0.5907
-4.1569 LARUPKTANTI	-0.5907
-4.1569 LARUPKTATI	-0.5907
-4.1569 LARUPKTHA	-0.5907
-4.1569 LARUPKTHTI	-0.5907
-4.1569 LARUPXITI	-0.5907
-4.0319 LARUPXIWA	-0.6699
-4.1569 LARUPXTANTI	-0.5907
-4.1569 LARUPXTANWA	-0.5907
-4.1569 LARUPXTATI	-0.5907
-4.0319 LARUPXTAWA	-0.6699
-4.1569 LARUPXTHTI	-0.5907
-4.1569 LARUPXTHWA	-0.5907
-4.3330 LARUSKIWA	-0.4938
-4.1569 LARUTI	-0.5907
-4.1569 LARUWA	-0.5907
-3.3118 LAXRA	-1.2713
-3.8558 LEONARDO	-0.8459
-3.5548 LEONARDOWA	-1.0379
-3.1288 LIQI	-1.4354
-3.4035 LIRQ’U	-1.1926
-3.4035 LLAJLLA	-1.1926
-3.7309 LLAKISIMTI	-0.8918
-4.0319 LLAKISIÑA	-0.7368
-3.3787 LLAMAYU	-1.2131
-3.4299 LLAMP’U	-1.1701
-3.4035 LLAWCH’A	-1.1925
-3.3787 LLAYTHA	-1.2138
-4.1569 LLAYTHAKI	-0.5907
-4.3330 LLAYTHAKITI	-0.4938
-4.1569 LLAYTHAPKI	-0.5907
-4.3330 LLAYTHAPKITI	-0.4938
-4.3330 LLIPHUSA	-0.4938
-4.3330 LLUCHHU	-0.4938
-4.3330 LLUCH’U	-0.4938
-3.4035 LLUMPAQA	-1.1923
-3.4035 LLUNK’U	-1.1705
-4.1569 LLUNK’UKTAN	-0.5907
-4.3330 LLUNK’UKTANTI	-0.4938
-4.1569 LLUNK’UPKTAN	-0.5907
-4.3330 LLUNK’UPKTANTI	-0.4938
-3.2026 LLUNK’USIÑA	-1.3541
-3.1426 LLÄTUNKA	-1.4132
-2.9097 LLÄTUNKANI	-1.6366
-3.3787 LLÄTUNKÏRI	-1.2137
-4.1569 LUCIANAWA	-0.5907
-3.3330 LUK’ANA	-1.2715
-3.4035 LULI	-1.1926
-3.4035 LUNQHU	-1.1924
-4.1569 LUNQHUKTA	-0.5907
-4.3330 LUNQHUKTATI	-0.4938
-4.1569 LUNQHUPKTA	-0.5907
-4.3330 LUNQHUPKTATI	-0.4938
-3.5200 LUNTHATAPXITU	-1.0678
-4.0319 LUNTHATAÑA	-0.7368
-3.4035 LUPI	-1.1922
-3.4035 LUPISKITI	-1.1926
-3.4035 LUPISKIWA	-1.1925
-4.1569 LUPIÑA	-0.5907
-4.1569 LUP’IÑA	-0.5907
-3.7309 LUP’KITI	-0.8918
-3.4299 LURAM	-1.1703
-3.4035 LURAMTI	-1.1870
-3.4299 LURAPXAM	-1.1470
-3.4035 LURAPXAMTI	-1.1870
-3.3787 LURAPXAÑÄNI	-1.1928
-3.7309 LURAPXTA	-0.8918
-3.7309 LURASKAPXTA	-0.8918
-4.3330 LURASKIWA	-0.4938
-3.7889 LURASKTHA	-0.8460
-3.6340 LURAWINIKTHTI	-0.9709
-3.7309 LURAWINITHWA	-0.8918
-3.5926 LURAÑA	-1.0675
-3.3787 LURIRI	-1.2137
-3.6798 LURIRISA	-0.9331
-3.4579 LURTHA	-1.1469
-3.9350 LURT’AÑA	-0.7948
-3.3787 MACHAQA	-1.2136
-4.3330 MAKHATASKIWA	-0.4938
-3.6798 MAKHATAWINKTASA	-0.9331
-3.2026 MAKHATAÑA	-1.3685
-3.4879 MAKHATAÑÄNI	-1.0959
-3.7309 MALENAMPI	-0.9330
-3.7309 MALLASARU	-1.0056
-4.1569 MALLASARUWA	-0.6699
-3.4035 MALLQ’A	-1.1926
-3.4035 MAMA	-1.1926
-3.6798 MAMAJAXA	-0.9708
-3.4035 MAMANI	-1.1926
-3.4035 MAMURAYA	-1.1926
-3.4299 MANQHA	-1.1699
-4.3330 MANQHANA	-0.4938
-3.9350 MANQHATA	-0.7948
-4.3330 MANQ’A	-0.4938
-3.4299 MANQ’AM	-1.1703
-3.4035 MANQ’AMTI	-1.1870
-3.4579 MANQ’APXAM	-1.1412
-3.3787 MANQ’APXAMTI	-1.1928
-4.3330 MANQ’ASKIWA	-0.4938
-3.7309 MANQ’ASKTHWA	-0.8918
-3.7309 MANQ’ATA	-0.9331
-3.6798 MANQ’AXA	-0.9702
-3.3330 MANQ’AÑA	-1.3820
-3.7309 MANQ’AÑAMAWA	-0.8918
-4.3330 MANQ’AÑATAKI	-0.4938
-3.6798 MANQ’IRI	-0.9707
-4.6340 MANQ’THA	-0.3689
-3.4299 MANTAM	-1.1703
-3.4035 MANTAMTI	-1.1870
-3.4299 MANTAPXAM	-1.1703
-3.3787 MANTAPXAMTI	-1.2082
-4.1569 MANTAWI	-0.6697
-3.7309 MANTAWINAKA	-0.9329
-3.7309 MANTAWIXA	-0.8918
-4.0319 MANTAÑA	-0.7368
-3.8558 MANTIXA	-0.8446
-4.3330 MANTKITI	-0.4938
-3.7309 MAQ’AÑATAKI	-0.9329
-2.8079 MARA	-1.7580
-4.1569 MARANIKI	-0.5907
-4.1569 MARANIKITI	-0.5907
-4.1569 MARANIKTA	-0.5907
-4.1569 MARANIKTAN	-0.5907
-4.1569 MARANIKTANTI	-0.5907
-4.1569 MARANIKTATI	-0.5907
-4.1569 MARANIKTHA	-0.5907
-4.0319 MARANIKTHTI	-0.6699
-4.1569 MARANIPKI	-0.5907
-4.1569 MARANIPKITI	-0.5907
-4.1569 MARANIPKTA	-0.5907
-4.1569 MARANIPKTAN	-0.5907
-4.1569 MARANIPKTANTI	-0.5907
-4.1569 MARANIPKTATI	-0.5907
-4.0319 MARANIPKTHA	-0.6699
-4.1569 MARANIPKTHTI	-0.5907
-4.1569 MARANIPXITI	-0.5907
-4.0319 MARANIPXIWA	-0.6699
-4.1569 MARANIPXTANTI	-0.5907
-4.1569 MARANIPXTANWA	-0.5907
-4.1569 MARANIPXTATI	-0.5907
-4.0319 MARANIPXTAWA	-0.6699
-4.1569 MARANIPXTHTI	-0.5907
-4.1569 MARANIPXTHWA	-0.5907
-4.1569 MARANITANTI	-0.5907
-4.1569 MARANITANWA	-0.5907
-3.5926 MARANITASA	-1.0057
-4.0319 MARANITATI	-0.6699
-4.0319 MARANITAWA	-0.6699
-4.1569 MARANITHTI	-0.5907
-3.3787 MARANITHWA	-1.2132
-4.1569 MARANITI	-0.5907
-3.5200 MARANIWA	-1.0678
-3.9350 MARANKTHWA	-0.7945
-3.4035 MARKA	-1.1918
-4.1569 MARKANKIRIKI	-0.5907
-4.1569 MARKANKIRIKITI	-0.5907
-4.1569 MARKANKIRIPKI	-0.5907
-4.1569 MARKANKIRIPKITI	-0.5907
-4.1569 MARKANKIRIPKTAN	-0.5907
-4.1569 MARKANKIRIPKTHTI	-0.5907
-4.1569 MARKANKIRIPXITI	-0.5907
-4.0319 MARKANKIRIPXIWA	-0.6699
-4.0319 MARKANKIRITANWA	-0.6699
-4.1569 MARKANKIRITI	-0.5907
-3.5548 MARKANKIRIWA	-1.0379
-4.1569 MARKANKIRÏKTA	-0.5907
-4.1569 MARKANKIRÏKTAN	-0.5907
-4.1569 MARKANKIRÏKTANTI	-0.5907
-4.1569 MARKANKIRÏKTATI	-0.5907
-4.1569 MARKANKIRÏKTHA	-0.5907
-4.1569 MARKANKIRÏKTHTI	-0.5907
-4.1569 MARKANKIRÏPKTA	-0.5907
-4.1569 MARKANKIRÏPKTANTI	-0.5907
-4.1569 MARKANKIRÏPKTATI	-0.5907
-4.1569 MARKANKIRÏPKTHA	-0.5907
-4.1569 MARKANKIRÏPXTANTI	-0.5907
-4.0319 MARKANKIRÏPXTANWA	-0.6699
-4.1569 MARKANKIRÏPXTATI	-0.5907
-4.0319 MARKANKIRÏPXTAWA	-0.6699
-4.1569 MARKANKIRÏPXTHTI	-0.5907
-4.1569 MARKANKIRÏPXTHWA	-0.5907
-4.1569 MARKANKIRÏTANTI	-0.5907
-4.1569 MARKANKIRÏTATI	-0.5907
-4.0319 MARKANKIRÏTAWA	-0.6699
-4.1569 MARKANKIRÏTHTI	-0.5907
-3.3552 MARKANKIRÏTHWA	-1.2334
-3.7309 MARKARUWA	-0.9327
-4.3330 MARKASATA	-0.4938
-4.0319 MARKATAKI	-0.6699
-4.1569 MARKATAKITI	-0.5907
-4.1569 MARKATAPKI	-0.5907
-4.0319 MARKATAPKITI	-0.6699
-4.0319 MARKATAPXITI	-0.6699
-3.9350 MARKATAPXIWA	-0.7368
-3.6798 MARKATASA	-0.9331
-4.1569 MARKATATI	-0.5907
-3.5926 MARKATAWA	-1.0057
-4.1569 MARKATÄKTA	-0.5907
-4.1569 MARKATÄKTAN	-0.5907
-4.3330 MARKATÄKTANTI	-0.4938
-4.1569 MARKATÄKTATI	-0.5907
-4.1569 MARKATÄKTHA	-0.5907
-4.1569 MARKATÄKTHTI	-0.5907
-4.1569 MARKATÄPKTA	-0.5907
-4.1569 MARKATÄPKTAN	-0.5907
-4.1569 MARKATÄPKTANTI	-0.5907
-4.1569 MARKATÄPKTATI	-0.5907
-4.1569 MARKATÄPKTHA	-0.5907
-4.1569 MARKATÄPKTHTI	-0.5907
-4.1569 MARKATÄPXTANTI	-0.5907
-4.1569 MARKATÄPXTANWA	-0.5907
-4.1569 MARKATÄPXTATI	-0.5907
-4.1569 MARKATÄPXTAWA	-0.5907
-4.1569 MARKATÄPXTHTI	-0.5907
-4.1569 MARKATÄPXTHWA	-0.5907
-4.1569 MARKATÄTANTI	-0.5907
-4.0319 MARKATÄTANWA	-0.6699
-3.6798 MARKATÄTASA	-0.9331
-4.1569 MARKATÄTATI	-0.5907
-4.1569 MARKATÄTAWA	-0.5907
-4.1569 MARKATÄTHTI	-0.5907
-3.5926 MARKATÄTHWA	-1.0057
-3.2026 MARMI	-1.3683
-2.7419 MASI	-1.8150
-3.8558 MASIJAMPI	-0.8459
-3.6798 MASIMAXA	-0.9696
-3.6798 MASINAKA	-0.9331
-3.7889 MASINAKAMASTI	-0.8460
-4.1569 MASINAKANITASA	-0.5907
-3.7309 MASINAKANITHWA	-0.8918
-3.6340 MASINITHWA	-0.9709
-4.1569 MASIPKI	-0.5907
-4.1569 MASIPKITI	-0.5907
-4.1569 MASIPKTA	-0.5907
-3.7889 MASIPKTAN	-0.8460
-3.9350 MASIPKTANTI	-0.7368
-4.1569 MASIPKTATI	-0.5907
-4.0319 MASIPKTHA	-0.6699
-4.1569 MASIPKTHTI	-0.5907
-4.1569 MASIPXITI	-0.5907
-4.0319 MASIPXIWA	-0.6699
-4.0319 MASIPXTANTI	-0.6699
-4.1569 MASIPXTANWA	-0.5907
-4.1569 MASIPXTATI	-0.5907
-4.0319 MASIPXTAWA	-0.6699
-4.1569 MASIPXTHTI	-0.5907
-4.1569 MASIPXTHWA	-0.5907
-4.3330 MASISARU	-0.4938
-4.0319 MASITANTI	-0.6699
-4.1569 MASITANWA	-0.5907
-3.6798 MATEMATICAXA	-0.9708
-4.1569 MATI	-0.6699
-4.3330 MATIMATIKAXA	-0.4938
-3.2190 MAYA	-1.4098
-3.7309 MAYAMPI	-0.9329
-2.8079 MAYANI	-1.7367
-4.0319 MAYIÑA	-0.7368
-4.3330 MAYT’ASISKIWA	-0.4938
-4.1569 MAYT’AÑA	-0.6698
-3.1426 MAYÏRI	-1.4346
-4.3330 MEGA	-0.5907
-3.4035 MISK’I	-1.1926
-4.1569 MISTKANI	-0.5907
-4.1569 MISTKANITI	-0.5907
-4.0319 MISTKAPXANI	-0.6699
-4.1569 MISTKAPXANITI	-0.5907
-4.0319 MISTKAPXAÑÄNI	-0.6699
-4.1569 MISTKAPXAÑÄNITI	-0.5907
-4.1569 MISTKAPXÄ	-0.5907
-4.0319 MISTKAPXÄTA	-0.6699
-4.1569 MISTKAPXÄTATI	-0.5907
-4.1569 MISTKAPXÄTI	-0.5907
-4.0319 MISTKAÑÄNI	-0.6699
-4.1569 MISTKAÑÄNITI	-0.5907
-4.1569 MISTKÄ	-0.5907
-4.1569 MISTKÄTA	-0.5907
-4.0319 MISTKÄTATI	-0.6699
-4.0319 MISTKÄTI	-0.6699
-3.4299 MISTUM	-1.1470
-3.4035 MISTUMTI	-1.1870
-4.0319 MISTUNITI	-0.6699
-4.0319 MISTUNIWA	-0.6699
-3.4299 MISTUPXAM	-1.1703
-3.4035 MISTUPXAMTI	-1.1870
-4.0319 MISTUPXANITI	-0.6699
-4.0319 MISTUPXANIWA	-0.6699
-4.0319 MISTUPXAÑÄNITI	-0.6699
-4.0319 MISTUPXAÑÄNIWA	-0.6699
-4.0319 MISTUPXÄTATI	-0.6699
-4.1569 MISTUPXÄTAWA	-0.5907
-4.0319 MISTUPXÄTI	-0.6699
-4.0319 MISTUPXÄWA	-0.6699
-3.6340 MISTUÑA	-1.0371
-4.0319 MISTUÑÄNITI	-0.6699
-4.0319 MISTUÑÄNIWA	-0.6699
-4.0319 MISTÜTATI	-0.6699
-4.0319 MISTÜTAWA	-0.6699
-4.1569 MISTÜTI	-0.5907
-4.0319 MISTÜWA	-0.6699
-3.4035 MUJLLI	-1.1705
-4.1569 MUNAPKI	-0.5907
-4.1569 MUNAPKITI	-0.5907
-4.1569 MUNAPKTA	-0.5907
-4.3330 MUNAPKTAN	-0.4938
-4.3330 MUNAPKTANTI	-0.4938
-4.1569 MUNAPKTATI	-0.5907
-4.1569 MUNAPKTHA	-0.5907
-4.1569 MUNAPKTHTI	-0.5907
-4.1569 MUNAPXITI	-0.5907
-3.7309 MUNAPXITUWA	-0.8918
-4.0319 MUNAPXIWA	-0.6699
-4.3330 MUNAPXTANTI	-0.4938
-4.3330 MUNAPXTANWA	-0.4938
-4.1569 MUNAPXTATI	-0.5907
-4.0319 MUNAPXTAWA	-0.6699
-4.1569 MUNAPXTHTI	-0.5907
-4.1569 MUNAPXTHWA	-0.5907
-2.9619 MUNATA	-1.5989
-4.0319 MUNATAMAXA	-0.6699
-4.1569 MUNATANIKI	-0.5907
-4.0319 MUNATANIKITI	-0.6699
-4.1569 MUNATANIKTA	-0.5907
-4.1569 MUNATANIKTAN	-0.5907
-4.1569 MUNATANIKTANTI	-0.5907
-4.1569 MUNATANIKTATI	-0.5907
-4.0319 MUNATANIKTHA	-0.6699
-3.4035 MUNATANIKTHTI	-1.1705
-4.1569 MUNATANIPKI	-0.5907
-3.9350 MUNATANIPKITI	-0.7368
-4.0319 MUNATANIPKTA	-0.6699
-4.1569 MUNATANIPKTAN	-0.5907
-4.0319 MUNATANIPKTANTI	-0.6699
-4.0319 MUNATANIPKTATI	-0.6699
-4.1569 MUNATANIPKTHA	-0.5907
-3.9350 MUNATANIPKTHTI	-0.7368
-4.1569 MUNATANIPXITI	-0.5907
-4.0319 MUNATANIPXIWA	-0.6699
-4.0319 MUNATANIPXTANTI	-0.6699
-4.0319 MUNATANIPXTANWA	-0.6699
-4.1569 MUNATANIPXTATI	-0.5907
-4.0319 MUNATANIPXTAWA	-0.6699
-4.1569 MUNATANIPXTHTI	-0.5907
-4.1569 MUNATANIPXTHWA	-0.5907
-4.1569 MUNATANITANTI	-0.5907
-4.1569 MUNATANITANWA	-0.5907
-3.2190 MUNATANITATI	-1.3389
-3.9350 MUNATANITAWA	-0.7368
-4.0319 MUNATANITHTI	-0.6699
-3.3552 MUNATANITHWA	-1.2140
-4.1569 MUNATANITI	-0.5907
-3.9350 MUNATANIWA	-0.7368
-3.9350 MUNATAWA	-0.7941
-3.6340 MUNAYPATANA	-1.0957
-4.0319 MUNAÑA	-0.7368
-4.1569 MUNITI	-0.5907
-4.0319 MUNIWA	-0.6699
-4.1569 MUNKI	-0.5907
-4.1569 MUNKITI	-0.5907
-4.1569 MUNKTA	-0.5907
-4.3330 MUNKTAN	-0.4938
-4.3330 MUNKTANTI	-0.4938
-4.1569 MUNKTATI	-0.5907
-4.1569 MUNKTHA	-0.5907
-4.1569 MUNKTHTI	-0.5907
-3.7309 MUNTA	-0.8918
-4.3330 MUNTANTI	-0.4938
-4.3330 MUNTANWA	-0.4938
-4.1569 MUNTATI	-0.5907
-4.1569 MUNTAWA	-0.5907
-3.7309 MUNTHA	-0.8918
-4.1569 MUNTHTI	-0.5907
-2.8631 MUNTHWA	-1.6840
-3.7889 MUNTKTHTI	-0.8460
-3.4579 MUQU	-1.1468
-3.3787 MURTURIYA	-1.2138
-3.7309 MUSEORU	-1.0055
-4.1569 MUSEORUWA	-0.6698
-3.6340 MUSICAXA	-1.0056
-4.3330 MUSIKAXA	-0.4938
-3.6798 MUSK’AWA	-0.9331
-4.3330 MUSPASKIWA	-0.4938
-3.3787 MUSQ’A	-1.2138
-3.8558 MUYUNTATA	-0.8459
-3.9350 MUYUNTATÄTHWA	-0.7946
-3.3552 MÄ	-1.2894
-3.3787 MÄKI	-1.2334
-3.3787 NASA	-1.2133
-3.4035 NAYA	-1.1926
-3.7309 NAYAKTHTI	-0.8918
-3.9350 NAYAMPI	-0.7948
-3.4879 NAYANKIWA	-1.0959
-4.0319 NAYANKKITI	-0.6699
-3.9350 NAYARU	-0.7948
-3.9350 NAYATA	-0.7948
-3.7889 NAYATHWA	-0.8460
-3.6340 NAYAWA	-1.0056
-2.1412 NAYAXA	-2.4190
-2.9350 NAYRA	-1.6237
-4.3330 NAYRAMPI	-0.4938
-3.7309 NAYRANAKAJAXA	-0.9708
-3.7309 NAYRANAKANIWA	-0.8918
-3.1868 NAYRAQATA	-1.3828
-3.9350 NAYRARUPUNIWA	-0.7948
-3.2026 NAYRIRI	-1.3684
-3.4299 NI	-1.1697
-2.9438 NINA	-1.6230
-3.3787 NUWALA	-1.2138
-3.2026 NUWAÑA	-1.3541
-3.4035 NÄNAKA	-1.1925
-2.4973 NÄNAKAXA	-2.0860
-3.6340 ORURO	-1.0054
-4.6340 PACEÑO	-0.3689
-2.8211 PACHA	-1.7414
-3.7889 PACHANIKTHTI	-0.8460
-3.6798 PACHANKTANWA	-0.9331
-3.6798 PACHAXISA	-0.9696
-3.4035 PAKA	-1.1705
-3.6798 PALASKTAWA	-0.9331
-3.0319 PALLA	-1.5441
-3.8558 PALLANAKANA	-0.8459
-4.3330 PALLAÑA	-0.4938
-3.4035 PAMPA	-1.1904
-3.4035 PANICHATA	-1.1926
-3.3118 PANKA	-1.2718
-3.7309 PANTALUNAJAXA	-0.9330
-3.4035 PANTI	-1.1922
-4.1569 PAOLA	-0.6698
-3.0319 PAQALLQU	-1.5537
-2.9180 PAQALLQUNI	-1.6312
-3.3787 PAQALLQÜRI	-1.2137
-3.4299 PARA	-1.1699
-3.4035 PARIWANA	-1.1925
-3.4299 PARLAM	-1.1703
-4.0319 PARLAMTI	-0.7311
-4.1569 PARLAPKI	-0.5907
-4.1569 PARLAPKITI	-0.5907
-4.1569 PARLAPKTA	-0.5907
-4.1569 PARLAPKTAN	-0.5907
-4.1569 PARLAPKTANTI	-0.5907
-4.1569 PARLAPKTATI	-0.5907
-4.1569 PARLAPKTHA	-0.5907
-4.1569 PARLAPKTHTI	-0.5907
-3.4299 PARLAPXAM	-1.1703
-3.2190 PARLAPXAMTI	-1.3484
-3.7889 PARLASKAPXATANWA	-0.8460
-4.1569 PARLASKAPXITI	-0.5907
-3.6340 PARLASKAPXIWA	-0.9709
-4.1569 PARLASKAPXTANTI	-0.5907
-4.1569 PARLASKAPXTANWA	-0.5907
-4.1569 PARLASKAPXTATI	-0.5907
-3.6340 PARLASKAPXTAWA	-0.9709
-4.1569 PARLASKAPXTHTI	-0.5907
-3.6340 PARLASKAPXTHWA	-0.9709
-4.1569 PARLASKITI	-0.5907
-3.6340 PARLASKIWA	-0.9709
-4.3330 PARLASKTANTI	-0.4938
-3.3552 PARLASKTANWA	-1.2140
-4.1569 PARLASKTATI	-0.5907
-4.1569 PARLASKTAWA	-0.5907
-4.1569 PARLASKTHTI	-0.5907
-3.6340 PARLASKTHWA	-0.9709
-3.4035 PARLATA	-1.1926
-4.0319 PARLAÑA	-0.7368
-3.6798 PARLISTATI	-0.9331
-4.1569 PARLKI	-0.5907
-4.1569 PARLKITI	-0.5907
-4.1569 PARLKTA	-0.5907
-4.1569 PARLKTAN	-0.5907
-4.1569 PARLKTANTI	-0.5907
-4.1569 PARLKTATI	-0.5907
-4.1569 PARLKTHA	-0.5907
-4.1569 PARLKTHTI	-0.5907
-3.7309 PASTILLANAKA	-0.9330
-3.4299 PATA	-1.1703
-2.7767 PATAKA	-1.7805
-3.2361 PAYA	-1.3933
-2.7589 PAYANI	-1.7835
-3.1288 PAYÏRI	-1.4471
-2.7149 PAZ	-1.9619
-3.7309 PELICULANAKA	-0.9708
-4.3330 PHALLAÑA	-0.4938
-4.3330 PHARA	-0.4938
-3.6798 PHARJITU	-0.9331
-2.9528 PHAXSI	-1.6104
-3.3787 PHAXSÜRU	-1.2132
-4.3330 PHAYASKIWA	-0.4938
-4.1569 PHAYAÑA	-0.5907
-3.3787 PHAYIRI	-1.2138
-3.9350 PHAYIRINAKAXA	-0.7948
-4.3330 PHICHHAÑA	-0.4938
-3.3330 PHICHHU	-1.2717
-4.1569 PHICHU	-0.6697
-3.1288 PHISI	-1.4352
-3.7889 PHISINIKTHTI	-0.8460
-3.7309 PHISINITATI	-0.8918
-3.7889 PHISINITHWA	-0.8460
-4.3330 PHISKHURASKIWA	-0.4938
-3.4299 PHISKHUÑA	-1.1701
-3.4035 PHISQA	-1.1923
-3.3552 PHISQANI	-1.2312
-3.2026 PHISQHA	-1.4254
-3.0658 PHISQHANI	-1.4905
-4.3330 PHISQHÏRI	-0.4938
-3.4035 PHISQÏRI	-1.1924
-3.4035 PHUCHHA	-1.1925
-4.1569 PHUQHAÑA	-0.5907
-4.3330 PHUSU	-0.4938
-4.3330 PHUYU	-0.4938
-4.0319 PICHAÑA	-0.7368
-3.4035 PICHIRI	-1.1705
-3.4035 PILPINTU	-1.1926
-3.6340 PIPUKANAKA	-1.0056
-3.6798 PIPUKANAKAXA	-0.9331
-3.7889 PIRAI	-0.8916
-3.3552 PIRQA	-1.2333
-3.3787 PIRWA	-1.1928
-4.3330 PISI	-0.4938
-3.7889 PISINARU	-0.9708
-3.6798 PISINARUWA	-0.9705
-4.0319 PITAÑA	-0.7368
-4.1569 PIÑA	-0.6698
-4.6340 PLATO	-0.3689
-3.8558 PLAY	-0.8459
-3.8558 POTOSIRUWA	-0.8456
-3.9350 PRIMARIANKTHWA	-0.7368
-3.7309 PULIRAMAXA	-0.9330
-4.3330 PUQUTA	-0.4938
-3.4035 PURAKA	-1.1926
-3.4879 PURAKAJAWA	-1.1468
-4.3330 PURAKAPAWA	-0.4938
-4.3330 PURISKIWA	-0.4938
-3.7309 PURITU	-0.8918
-2.9808 PUSI	-1.6137
-2.8706 PUSINI	-1.6812
-3.4035 PUSÏRI	-1.1926
-2.2780 PÄ	-2.2563
-3.2026 P’AKIÑA	-1.3685
-3.4035 P’AP’I	-1.1925
-3.4035 P’ASP’ATA	-1.1925
-3.7889 P’ASP’ATAWA	-0.8460
-3.4035 P’AXLA	-1.1924
-4.3330 P’INQASISKIWA	-0.4938
-3.4035 P’IQI	-1.1925
-3.7309 P’IQIJARAKIWA	-0.9330
-4.3330 P’IQIJAWA	-0.4938
-4.3330 P’IQIPAWA	-0.4938
-3.4035 P’ISAQA	-1.1926
-3.2538 P’ISQI	-1.3671
-4.3330 P’ITAÑA	-0.4938
-3.3787 P’ITIRI	-1.1928
-3.2026 P’UNKHINTAÑA	-1.3685
-4.3330 P’USU	-0.4938
-3.3787 P’UTUXSI	-1.2136
-4.3330 P’UYU	-0.4938
-3.4035 QALA	-1.1924
-3.1155 QALLTA	-1.4478
-3.7309 QALLTANXA	-0.9328
-4.0319 QALLTAÑA	-0.7368
-3.3787 QAMAQI	-1.2138
-3.8558 QAMASTHA	-0.8458
-4.0319 QAMAÑA	-0.7368
-4.0319 QAMI	-0.7368
-3.2190 QAMTHA	-1.3389
-3.7889 QARITAPXTANWA	-0.8460
-4.0319 QARIÑA	-0.7368
-3.4035 QARWA	-1.1926
-3.4035 QASAWI	-1.1925
-2.8781 QAWQHA	-1.6894
-3.4579 QAWQHASA	-1.1703
-3.4035 QAWRA	-1.1926
-3.4035 QAÑAWA	-1.1926
-3.6798 QHANANCHKITI	-0.9331
-4.1569 QHANTATIÑA	-0.6699
-3.6798 QHARÜRKAMA	-0.9708
-3.3787 QHARÜRU	-1.2138
-4.3330 QHARÜRUTAKI	-0.4938
-3.7309 QHATHITA	-0.9330
-4.3330 QHATHURUWA	-0.4938
-3.4579 QHIPA	-1.1468
-4.3330 QHIPANA	-0.4938
-3.2026 QHIPÄXA	-1.3541
-3.2026 QHIWIKIPAÑA	-1.3685
-3.4299 QHUCHA	-1.1703
-4.3330 QHULLIRI	-0.4938
-3.3787 QHULU	-1.2138
-4.1569 QHUMAÑA	-0.6691
-3.3787 QHURU	-1.2134
-3.3787 QHURUKUTA	-1.2137
-3.6798 QHURUWA	-0.9331
-3.4035 QILLQAM	-1.1926
-3.3787 QILLQAMTI	-1.2082
-3.4299 QILLQAPXAM	-1.1703
-3.4035 QILLQAPXAMTI	-1.1870
-3.8558 QILLQATARUSA	-0.8459
-2.8211 QILLQAÑA	-1.7355
-3.7309 QILLQAÑAJAWA	-0.8918
-3.4035 QILLQIRI	-1.1923
-3.4579 QINAYA	-1.1222
-4.3330 QINAYATI	-0.4938
-4.3330 QINAYAWA	-0.4938
-3.6340 QULLAÑA	-1.0377
-3.1025 QULLIRI	-1.4705
-3.1868 QULLQI	-1.3963
-3.7889 QULLQINIKTHTI	-0.8460
-4.3330 QULLU	-0.4938
-4.3330 QULQIXA	-0.4938
-3.4035 QUNQURI	-1.1926
-3.4035 QUNT’AM	-1.1705
-3.4035 QUNT’AMTI	-1.1870
-3.4299 QUNT’APXAM	-1.1703
-3.4299 QUNT’APXAMTI	-1.1647
-4.3330 QUNT’ASISKIWA	-0.4938
-3.3787 QUNUÑA	-1.2136
-4.0319 QUQA	-0.6699
-3.2026 QUÑA	-1.3541
-4.3330 Q’ALA	-0.4938
-3.3552 Q’APHA	-1.2339
-4.3330 Q’ARAWA	-0.4938
-3.3787 Q’AWACHIRA	-1.2082
-3.4035 Q’AYMA	-1.1926
-4.1569 Q’AYMAKTHA	-0.5907
-4.3330 Q’AYMAKTHTI	-0.4938
-4.1569 Q’AYMAPKTHA	-0.5907
-4.3330 Q’AYMAPKTHTI	-0.4938
-3.4035 Q’AÑU	-1.1926
-3.7309 Q’AÑUWA	-0.8918
-2.9808 Q’ILLU	-1.5817
-3.9350 Q’ILLUMPI	-0.7948
-3.4035 Q’IWIRI	-1.1926
-3.4035 Q’IWSA	-1.1922
-2.9350 Q’IXU	-1.6304
-4.6340 Q’IXUTI	-0.3689
-3.3787 Q’IXUWA	-1.2138
-4.3330 Q’ULLU	-0.4938
-3.4035 Q’UMA	-1.1920
-3.5200 RATUKI	-1.0953
-3.4299 RIXI	-1.1696
-4.1569 RODRIGUEZ	-0.6698
-3.3787 SAJUNA	-1.2134
-3.2026 SAK’AÑA	-1.3685
-4.3330 SALAR	-0.5907
-4.3330 SAMARASKIWA	-0.4938
-3.7309 SAMARAWIMANA	-0.9329
-3.1716 SAMI	-1.4086
-4.3330 SAMKASISKIWA	-0.4938
-4.0319 SAMKASIÑA	-0.7368
-4.0319 SAMSUÑA	-0.7364
-3.7889 SAMTI	-0.8916
-4.1569 SAN	-0.6699
-3.2026 SANKAÑA	-1.3685
-3.4299 SANTA	-1.1925
-3.3552 SAPA	-1.2524
-3.4879 SAPAKISKIWA	-1.0959
-3.7309 SAPAKISKTHWA	-0.8918
-3.4299 SARAM	-1.1703
-3.4035 SARAMTI	-1.1870
-4.1569 SARAPKI	-0.5907
-4.1569 SARAPKITI	-0.5907
-4.1569 SARAPKTA	-0.5907
-4.1569 SARAPKTAN	-0.5907
-4.1569 SARAPKTANTI	-0.5907
-4.1569 SARAPKTATI	-0.5907
-4.1569 SARAPKTHA	-0.5907
-4.1569 SARAPKTHTI	-0.5907
-3.4299 SARAPXAM	-1.1703
-3.4299 SARAPXAMTI	-1.1647
-4.1569 SARAPXAÑAJAKI	-0.5907
-4.1569 SARAPXAÑAJAKITI	-0.5907
-4.1569 SARAPXAÑAJATI	-0.5907
-3.9350 SARAPXAÑAJAWA	-0.7368
-4.1569 SARAPXAÑAMAKI	-0.5907
-4.1569 SARAPXAÑAMAKITI	-0.5907
-4.1569 SARAPXAÑAMATI	-0.5907
-4.0319 SARAPXAÑAMAWA	-0.6699
-4.1569 SARAPXAÑAPAKI	-0.5907
-4.1569 SARAPXAÑAPAKITI	-0.5907
-4.1569 SARAPXAÑAPATI	-0.5907
-4.0319 SARAPXAÑAPAWA	-0.6699
-4.1569 SARAPXAÑASAKI	-0.5907
-4.1569 SARAPXAÑASAKITI	-0.5907
-4.1569 SARAPXAÑASATI	-0.5907
-4.0319 SARAPXAÑASAWA	-0.6699
-4.3330 SARAPXI	-0.4938
-4.1569 SARAPXITI	-0.5907
-4.3330 SARAPXIWA	-0.4938
-4.3330 SARAPXTAN	-0.4938
-4.1569 SARAPXTANTI	-0.5907
-4.6340 SARAPXTANWA	-0.3689
-4.1569 SARAPXTATI	-0.5907
-4.3330 SARAPXTAWA	-0.4938
-4.1569 SARAPXTHA	-0.5907
-4.6340 SARAPXTHATI	-0.3689
-4.1569 SARAPXTHTI	-0.5907
-4.6340 SARAPXTHWA	-0.3689
-4.3330 SARAQASKIWA	-0.4938
-4.3330 SARASKIWA	-0.4938
-3.7309 SARASKTA	-0.8918
-4.3330 SARASKTHA	-0.4938
-3.0777 SARAÑA	-1.4937
-4.1569 SARAÑAJAKI	-0.5907
-4.1569 SARAÑAJAKITI	-0.5907
-4.1569 SARAÑAJATI	-0.5907
-4.0319 SARAÑAJAWA	-0.6699
-4.1569 SARAÑAMAKI	-0.5907
-4.1569 SARAÑAMAKITI	-0.5907
-4.1569 SARAÑAMATI	-0.5907
-4.0319 SARAÑAMAWA	-0.6699
-4.1569 SARAÑAPAKI	-0.5907
-4.1569 SARAÑAPAKITI	-0.5907
-4.1569 SARAÑAPATI	-0.5907
-4.0319 SARAÑAPAWA	-0.6699
-4.1569 SARAÑASAKI	-0.5907
-4.1569 SARAÑASAKITI	-0.5907
-4.1569 SARAÑASATI	-0.5907
-4.0319 SARAÑASAWA	-0.6699
-3.3330 SARAÑÄNI	-1.2342
-3.9350 SARI	-0.7368
-4.1569 SARITI	-0.5907
-4.6340 SARIWA	-0.3689
-4.1569 SARKI	-0.5907
-3.5926 SARKITI	-1.0057
-4.1569 SARKTA	-0.5907
-4.1569 SARKTAN	-0.5907
-4.1569 SARKTANTI	-0.5907
-4.1569 SARKTATI	-0.5907
-4.1569 SARKTHA	-0.5907
-4.1569 SARKTHTI	-0.5907
-4.0319 SARNAQAÑA	-0.7365
-3.7309 SARNAQTHA	-0.9707
-4.3330 SARTAN	-0.4938
-4.1569 SARTANTI	-0.5907
-4.6340 SARTANWA	-0.3689
-3.9350 SARTASI	-0.7946
-3.9350 SARTASTHA	-0.7947
-4.1569 SARTATI	-0.5907
-4.6340 SARTAWA	-0.3689
-3.1025 SARTHA	-1.4592
-4.1569 SARTHTI	-0.5907
-4.6340 SARTHWA	-0.3689
-3.6798 SARXAÑAJAWA	-0.9331
-3.4579 SARXAÑÄNI	-1.1703
-3.0429 SATA	-1.5343
-4.1569 SATAKI	-0.5907
-4.1569 SATAKITI	-0.5907
-4.1569 SATAKTA	-0.5907
-4.1569 SATAKTHA	-0.5907
-4.1569 SATAPKITI	-0.5907
-4.1569 SATAPXITI	-0.5907
-4.1569 SATATI	-0.5907
-3.8558 SATAWA	-0.7948
-4.1569 SATÄKTAN	-0.5907
-4.1569 SATÄKTANTI	-0.5907
-4.1569 SATÄKTATI	-0.5907
-4.1569 SATÄKTHTI	-0.5907
-4.1569 SATÄPKI	-0.5907
-4.1569 SATÄPKTA	-0.5907
-4.1569 SATÄPKTAN	-0.5907
-4.1569 SATÄPKTANTI	-0.5907
-4.1569 SATÄPKTATI	-0.5907
-4.1569 SATÄPKTHA	-0.5907
-4.1569 SATÄPKTHTI	-0.5907
-4.0319 SATÄPXIWA	-0.6699
-4.1569 SATÄPXTANTI	-0.5907
-4.1569 SATÄPXTANWA	-0.5907
-4.1569 SATÄPXTATI	-0.5907
-4.0319 SATÄPXTAWA	-0.6699
-4.1569 SATÄPXTHTI	-0.5907
-4.1569 SATÄPXTHWA	-0.5907
-4.1569 SATÄTANTI	-0.5907
-4.1569 SATÄTANWA	-0.5907
-4.1569 SATÄTATI	-0.5907
-4.0319 SATÄTAWA	-0.6699
-4.1569 SATÄTHTI	-0.5907
-3.6340 SATÄTHWA	-0.9709
-3.4035 SAWURI	-1.1921
-3.3787 SAXTA	-1.2138
-3.4299 SAYA	-1.1651
-3.5926 SAYASAWA	-1.0957
-3.4299 SAYT’AM	-1.1703
-3.4035 SAYT’AMTI	-1.1870
-3.4299 SAYT’APXAM	-1.1703
-3.4299 SAYT’APXAMTI	-1.1647
-3.1569 SAYT’AÑA	-1.4102
-4.3330 SAÑAXA	-0.4938
-3.4035 SIKU	-1.1705
-3.7309 SIKUWA	-0.8918
-3.4035 SILLP’A	-1.1926
-3.4035 SILLU	-1.1926
-3.7309 SILLUNAKAMAXA	-0.9330
-3.4879 SILULARAJAWA	-1.1220
-3.6798 SILULARAMANA	-0.9708
-3.2026 SINK’UÑA	-1.3541
-3.4035 SINTI	-1.1925
-3.4035 SIRIPITA	-1.1926
-4.3330 SIWA	-0.4938
-3.4035 SIWARA	-1.1922
-3.3787 SIWIQ’ARA	-1.2138
-3.9350 SIWULLA	-0.7368
-4.1569 SOLARUWA	-0.6695
-3.4579 SOPOCACHINA	-1.2337
-3.8558 STATION	-0.9328
-4.0319 SULLKÄPXTHWA	-0.7368
-2.9905 SUMA	-1.5814
-3.7309 SUMANWA	-0.8918
-3.6340 SUMAWA	-1.0056
-3.4035 SUNKHA	-1.1926
-3.4035 SURI	-1.1926
-4.0319 SUSTJASIÑA	-0.7368
-4.1569 SUSTJAÑA	-0.6699
-3.0899 SUTI	-1.4704
-3.6798 SUTIJAXA	-1.0055
-3.7309 SUTIKIWA	-0.8918
-3.7309 SUTIMAXA	-0.8918
-3.4579 SUTIPAXA	-1.1703
-3.4035 SUXA	-1.1926
-3.4035 SUXASKITI	-1.1926
-3.4035 SUXASKIWA	-1.1926
-3.0429 SUXTA	-1.5531
-2.9264 SUXTANI	-1.6235
-3.2190 SUXTÏRI	-1.3828
-4.0319 SUYAÑA	-0.7365
-4.3330 T'AMANT'ATA	-0.4938
-4.1569 TAE	-0.6699
-4.3330 TAKI	-0.4938
-3.1569 TAKIÑA	-1.4228
-3.4035 TAMURAYA	-1.1926
-3.1288 TANQA	-1.4474
-3.1288 TANSA	-1.4352
-4.3330 TANTA	-0.4938
-3.5926 TAQI	-1.0677
-3.9350 TAQIKUNSA	-0.7948
-2.7419 TARIJA	-1.9432
-3.7309 TARIJARU	-1.0056
-4.1569 TARIJARUWA	-0.6699
-3.2723 TATA	-1.3064
-3.4879 TATANAKAJAXA	-1.1468
-3.2361 TAWAQU	-1.3387
-3.6798 TAWAQUNAKAXA	-0.9706
-3.2916 TAYKA	-1.3064
-4.0319 TAYKAPAXA	-0.7368
-4.3330 TAYKARUSA	-0.4938
-3.3787 TAYKCH’I	-1.2134
-3.4035 TAYPI	-1.1923
-3.4879 TELEFERICOTA	-1.1220
-4.3330 TELEVISION	-0.5906
-4.0319 TERESANA	-0.7367
-4.3330 THAKHI	-0.4938
-3.4035 THANTHA	-1.1925
-3.7309 THANTHAWA	-0.8918
-3.4035 THAYA	-1.1921
-3.6340 THAYAPUNIWA	-0.9709
-3.4035 THAYASKITI	-1.1926
-3.4035 THAYASKIWA	-1.1921
-3.4299 THAYATI	-1.1470
-3.4035 THAYAWA	-1.1926
-4.3330 THITHI	-0.4938
-3.4035 THIXNI	-1.1926
-3.2026 THUNKUÑA	-1.3541
-3.3787 THUQHURI	-1.2128
-4.0319 THUQHUÑA	-0.6699
-3.2026 THUQTAÑA	-1.3685
-3.3330 THURU	-1.2717
-3.7309 THURUWA	-0.8918
-3.3787 THUSKHA	-1.2138
-3.4035 THUTHA	-1.1705
-3.7889 THÄ	-0.8916
-4.0319 TINTONA	-0.7944
-3.4035 TITI	-1.1926
-3.1426 TIWANA	-1.4225
-3.4035 TIWULA	-1.1926
-4.3330 TIXI	-0.4938
-4.3330 TUKUSIKIWA	-0.4938
-3.7309 TUKUYA	-0.9330
-4.0319 TUKUÑA	-0.7368
-3.7309 TUKUÑAJAWA	-0.8918
-4.3330 TUKUÑAKITI	-0.4938
-3.4035 TULLQA	-1.1925
-1.7509 TUNKA	-2.7617
-3.3787 TUNKÏRI	-1.1928
-3.4035 TUNQU	-1.1926
-3.4035 TUNTA	-1.1926
-3.2026 TUPAÑA	-1.3685
-3.7309 TUQIPXITUWA	-0.8918
-4.0319 TUQISISAKIWA	-0.7368
-4.3330 TUQISISKIWA	-0.4938
-4.0319 TUQIÑA	-0.7368
-4.3330 TUTA	-0.4938
-3.4035 TUTUKA	-1.1926
-3.4035 TUTUKATI	-1.1828
-3.4035 TUTUKAWA	-1.1828
-3.1288 TUXU	-1.4469
-4.1569 TUYUÑA	-0.6697
-3.4299 T’AMANT’ATA	-1.1703
-4.3330 T’AMATA	-0.4938
-2.9438 T’ANT’A	-1.6763
-2.8631 T’AQA	-1.6967
-3.6798 T’AQAWA	-0.9331
-3.4035 T’AXSURI	-1.1925
-4.1569 T’IJU	-0.6699
-4.3330 T’IJUSKIWA	-0.4938
-3.1569 T’IJUÑA	-1.4228
-3.4035 T’IMPHU	-1.1925
-3.4035 T’USU	-1.1926
-3.4035 UKA	-1.1926
-3.6798 UKAMPIRUSA	-0.9707
-3.4035 UKANAKA	-1.1926
-3.7309 UKATA	-0.9708
-3.7309 UKAXA	-0.9278
-3.7309 UKHAMARAKI	-0.8918
-3.5548 UKHAMAXA	-1.0673
-3.4035 UKJA	-1.1705
-3.4299 ULLAM	-1.1470
-3.4035 ULLAMTI	-1.1870
-3.4879 ULLAPXAM	-1.1220
-3.4035 ULLAPXAMTI	-1.1870
-3.3552 ULLAÑA	-1.2521
-3.4035 ULLUKU	-1.1926
-3.2190 UMA	-1.3955
-4.3330 UMAM	-0.4938
-3.8558 UMAMPI	-0.8914
-4.3330 UMANAKAXA	-0.5807
-4.3330 UMASKIWA	-0.4938
-3.6798 UMATA	-0.9708
-3.3330 UMAÑA	-1.3827
-3.6798 UMAÑAMAWA	-0.9331
-3.7309 UMAÑATAKI	-0.9329
-3.6798 UNCH’UKIÑA	-1.0049
-4.3330 UQARA	-0.4938
-3.4035 UQI	-1.1926
-3.4579 URA	-1.1463
-3.7309 URASA	-0.8918
-3.6798 URASAMANA	-0.9331
-2.9619 URASATI	-1.5931
-2.8936 URASAWA	-1.6552
-3.4299 URPI	-1.1701
-3.4035 URPU	-1.1920
-4.6340 URPUTI	-0.3689
-3.4035 URPUWA	-1.1926
-2.3668 URU	-2.1808
-3.7309 URUKIPANA	-0.8918
-3.7309 URUNA	-0.9329
-2.9619 URURI	-1.6022
-4.6340 URURU	-0.3689
-3.4035 URURÜRU	-1.1920
-3.5548 URUSA	-1.0379
-2.5476 URUTI	-2.0064
-2.5441 URUWA	-2.0096
-3.6798 USTAMA	-0.9331
-4.3330 USU	-0.4938
-4.0319 USUCHAÑA	-0.7368
-4.0319 USUNTAÑA	-0.7368
-3.4579 USUTA	-1.1468
-3.4879 USUTHU	-1.0959
-3.8558 USUTU	-0.7948
-2.6798 UTA	-1.8685
-3.4035 UTACHIRI	-1.1705
-4.3330 UTAJAR	-0.5905
-3.7889 UTAJARUWA	-0.8915
-3.4879 UTAJAXA	-1.1467
-3.7309 UTAMA	-0.9331
-3.4879 UTAMAXA	-1.1468
-3.7309 UTANA	-0.9701
-3.6798 UTARU	-0.9708
-3.7889 UTARUWA	-0.8915
-3.7309 UTASAWA	-0.8918
-3.4035 UTHURUNKU	-1.1925
-4.6340 UTJAPKI	-0.3689
-4.6340 UTJAPKITI	-0.3689
-4.1569 UTJAPKTA	-0.5907
-4.6340 UTJAPKTAN	-0.3689
-4.6340 UTJAPKTANTI	-0.3689
-4.1569 UTJAPKTATI	-0.5907
-4.1569 UTJAPKTHA	-0.5907
-4.1569 UTJAPKTHTI	-0.5907
-4.6340 UTJAPXITI	-0.3689
-4.6340 UTJAPXIWA	-0.3689
-4.6340 UTJAPXTANTI	-0.3689
-4.6340 UTJAPXTANWA	-0.3689
-4.1569 UTJAPXTATI	-0.5907
-4.0319 UTJAPXTAWA	-0.6699
-4.1569 UTJAPXTHTI	-0.5907
-4.1569 UTJAPXTHWA	-0.5907
-4.0319 UTJAÑA	-0.7367
-3.4299 UTJI	-1.1470
-3.2538 UTJITI	-1.3067
-3.5926 UTJIWA	-1.0057
-4.6340 UTJKI	-0.3689
-4.6340 UTJKITI	-0.3689
-4.1569 UTJKTA	-0.5907
-4.6340 UTJKTAN	-0.3689
-4.6340 UTJKTANTI	-0.3689
-4.1569 UTJKTATI	-0.5907
-4.1569 UTJKTHA	-0.5907
-4.1569 UTJKTHTI	-0.5907
-4.6340 UTJTANTI	-0.3689
-4.3330 UTJTANWA	-0.4938
-4.1569 UTJTATI	-0.5907
-4.0319 UTJTAWA	-0.6699
-4.1569 UTJTHTI	-0.5907
-4.1569 UTJTHWA	-0.5907
-4.1569 UYUNIRUWA	-0.6695
-3.4035 UÑCH’UKIM	-1.1926
-3.4299 UÑCH’UKIPXAM	-1.1470
-4.1569 UÑCH’UKIÑÄNITI	-0.5907
-3.7889 UÑCH’UKKAÑÄNITI	-0.8460
-3.9350 UÑISIÑA	-0.7948
-3.3787 UÑISKHUCHHI	-1.2138
-4.3330 UÑJASAWA	-0.4938
-4.3330 UÑJASAXA	-0.4938
-3.7309 UÑJASITAWA	-0.8918
-3.1288 UÑJIRI	-1.4465
-3.7889 UÑJKTHTI	-0.8460
-4.6340 UÑJTHWA	-0.3689
-3.7309 UÑT’ATAWA	-0.8918
-4.0319 UÑT’AÑA	-0.7368
-4.3330 UÑXATAÑATAKIWA	-0.4938
-2.8211 VARGAS	-1.8860
-4.3330 VILLA	-0.5907
-4.1569 VINO	-0.6699
-3.4035 WAJCHA	-1.1922
-3.4035 WAKA	-1.1926
-3.4299 WAKICHAWI	-1.1703
-2.8781 WALI	-1.7169
-2.9619 WALIKI	-1.6149
-3.6798 WALIKIRAKI	-0.9331
-3.6798 WALIKISKTATI	-0.9331
-3.7309 WALIKITI	-0.8918
-3.7889 WALIKTHTI	-0.8460
-3.2361 WALJA	-1.3682
-3.4035 WALLAQI	-1.1926
-3.4035 WALLPA	-1.1705
-3.4035 WALÜRU	-1.1926
-3.4035 WANAKU	-1.1926
-3.4035 WANK’U	-1.1920
-3.6340 WAQ’AQIÑA	-1.0049
-2.9905 WARANQA	-1.5538
-2.8347 WARI	-1.7247
-3.0005 WARMI	-1.5541
-4.0319 WARURT’IRIRAKIWA	-0.7368
-3.4035 WARÜRU	-1.1920
-3.4035 WASÜRU	-1.1926
-3.9350 WATSAPEYAÑÄNIWA	-0.7368
-3.0429 WAWA	-1.5347
-4.0319 WAWAPAXA	-0.7311
-3.6340 WAXT’AMA	-1.0047
-3.4035 WAYK’A	-1.1926
-2.7827 WAYNA	-1.7715
-3.6798 WAYNANAKAXA	-0.9706
-3.4035 WAYRUNQ’U	-1.1924
-3.4035 WAÑA	-1.1926
-3.3552 WIKUÑA	-1.2340
-2.9350 WILA	-1.6238
-3.6798 WILAMASIJAMPIWA	-0.9706
-3.9350 WILAMPI	-0.7948
-3.4035 WILLJTA	-1.1916
-2.8416 WILLKA	-1.7184
-3.4035 WILLKÜRU	-1.1922
-4.6340 WININKIRÏTHWA	-0.3689
-3.4035 WINTU	-1.1926
-3.9350 WIPHALAXA	-0.7948
-3.3787 WISK’ACHA	-1.2138
-4.3330 WIÑAYATAKIXA	-0.4938
-3.1025 YAKA	-1.4595
-4.0319 YANAPAÑA	-0.7368
-4.0319 YANAPI	-0.6699
-3.4035 YANAPIRI	-1.1926
-3.4035 YAPT’ITAYA	-1.1926
-3.4035 YAPU	-1.1926
-3.4035 YAPUCHIRI	-1.1924
-4.0319 YATICHAÑA	-0.7367
-4.1569 YATICHI	-0.5907
-3.1288 YATICHIRI	-1.4350
-3.7309 YATICHIRIWA	-0.8918
-3.4299 YATICHIRIXA	-1.1921
-3.6798 YATICHÄTAMA	-0.9331
-4.1569 YATIQAPXAÑAMAWA	-0.5907
-4.1569 YATIQAPXAÑAPAWA	-0.5907
-4.1569 YATIQAPXAÑASAWA	-0.5907
-4.0319 YATIQAPXTHWA	-0.7368
-3.7309 YATIQASKIWA	-0.8918
-3.7889 YATIQASKTWA	-0.8910
-4.3330 YATIQATASAPUNIWA	-0.4938
-3.7309 YATIQAWINIKTHTI	-0.8918
-4.0319 YATIQAWISA	-0.7368
-3.6340 YATIQAÑA	-1.0377
-3.4299 YATIQAÑAJAWA	-1.1470
-4.1569 YATIQAÑAMAWA	-0.5907
-4.1569 YATIQAÑAPAWA	-0.5907
-3.7309 YATIQAÑAPUNIWA	-0.8918
-3.7309 YATIQI	-0.8918
-2.8558 YATIQIRI	-1.6967
-3.7889 YATIQIRITHWA	-0.8460
-3.7889 YATIQKITI	-0.8460
-3.7309 YATIQTA	-0.8918
-3.7309 YATIQTHA	-0.8918
-3.4299 YATIYAWINAKA	-1.1701
-3.0777 YATIÑA	-1.4925
-3.5926 YATKTHTI	-1.0057
-3.4035 YUQA	-1.1926
-4.0319 YURIRITHWA	-0.7368
-4.0319 YURIÑA	-0.7368
-3.1716 YUSPAJARA	-1.4099
-3.3552 YUXCH’A	-1.2340
-3.4299 YÄNAKA	-1.1701
-3.9350 YÄQIRIXA	-0.7948
-3.1868 ÑAK’UTA	-1.3963
-3.4035 ÑIK’UTA	-1.1926
-3.7889 ÑIK’UTANAKANIWA	-0.8460
-3.7309 ÑIK’UTANAKAPAXA	-0.9706
-4.3330 ÑIK’UTANIWA	-0.4938
-4.0319 ÑIK’UTANÏTHWA	-0.7368
-3.7309 ÑIK’UTAWA	-0.8918
-3.4299 ÑUSATA	-1.1470
-3.4299 ÑUXU	-1.1699

\2-grams:
-0.0000 </s> <s> 0.0727
-3.3514 <s> ACHACHI 0.5798
-3.7493 <s> ACHACHICALANA -0.1761
-3.3514 <s> ACHACHILA 0.6021
-3.7493 <s> ACHACHILANITHWA 0.6532
-2.8199 <s> ACHAKU 0.0706
-3.5732 <s> ACHUMANINA -0.3869
-3.4483 <s> ACHUQA -0.5051
-3.0503 <s> AJANU -0.7728
-3.7493 <s> AJLLIÑA 1.1614
-2.6701 <s> AKA 0.0512
-2.8199 <s> AKANA 0.0706
-2.8199 <s> AKANAKA 0.0706
-2.8742 <s> AKAXA 0.2041
-2.8199 <s> AKJA 0.0706
-3.1473 <s> ALALAWA 0.0512
-3.5732 <s> ALASISKIWA 0.1249
-3.3514 <s> ALASITAYA 0.6232
-2.6032 <s> ALAXA 0.0300
-2.5590 <s> ALAYA 0.1807
-2.5590 <s> ALAÑA 0.0401
-3.5732 <s> ALAÑATAKI 0.2218
-3.5732 <s> ALAÑÄNITI 0.6021
-3.5732 <s> ALCALDIARU -0.3632
-3.5732 <s> ALCALDIARUWA -0.1761
-3.7493 <s> ALIAGA 0.1761
-2.7951 <s> ALIQATA 0.0458
-3.3514 <s> ALIRI 0.6021
-3.4483 <s> ALJAÑA -0.2341
-3.4483 <s> ALJIRI -0.5051
-2.8199 <s> ALLCHHI 0.0706
-2.7951 <s> ALLPACHU 0.0458
-3.4483 <s> ALPAQA -0.5051
-3.7493 <s> ALTHA 0.1761
-3.7493 <s> ALT’AÑA 1.1614
-3.3514 <s> ALWA -0.5099
-3.5732 <s> ALWAXA -0.2730
-3.4483 <s> AMARU 0.6767
-3.7493 <s> AMP -0.2139
-3.3514 <s> AMPARA -0.5229
-3.5732 <s> AMPARANAKANITAWA 0.5229
-3.4483 <s> AMTAÑA -0.2341
-3.5732 <s> AMUKISKAÑAWA 0.1249
-2.8462 <s> AMUKT’AM 0.0512
-3.7493 <s> AMUKT’AMTI 0.1761
-3.4483 <s> AMUKT’APXAM 0.6532
-3.7493 <s> AMUKT’APXAMTI 0.9294
-3.5732 <s> AMUYKTHTI 0.5643
-3.5732 <s> AMUYUNAKA -0.2730
-3.4483 <s> ANATA -0.5051
-3.7493 <s> ANATAPKI 0.3979
-3.7493 <s> ANATAPKITI 0.3979
-3.7493 <s> ANATAPKTA 0.3979
-3.7493 <s> ANATAPKTAN 0.3979
-3.7493 <s> ANATAPKTANTI 0.3979
-3.7493 <s> ANATAPKTATI 0.3979
-3.7493 <s> ANATAPKTHA 0.3979
-3.7493 <s> ANATAPKTHTI 0.3979
-3.5732 <s> ANATAPXARAKIWA 0.4771
-3.7493 <s> ANATAPXITI 0.3979
-3.5732 <s> ANATAPXIWA 0.3010
-3.7493 <s> ANATAPXTANTI 0.3979
-3.7493 <s> ANATAPXTANWA 0.7404
-3.7493 <s> ANATAPXTATI 0.3979
-3.5732 <s> ANATAPXTAWA 0.6021
-3.7493 <s> ANATAPXTHTI 0.3979
-3.7493 <s> ANATAPXTHWA 0.7404
-3.7493 <s> ANATASKTHWA 0.6532
-2.9712 <s> ANATAÑA -0.2775
-3.5732 <s> ANATAÑÄNI 0.1249
-3.4483 <s> ANATIRI -0.3865
-3.7493 <s> ANATITI 0.3979
-3.5732 <s> ANATIWA 0.6021
-3.7493 <s> ANATKI 0.3979
-3.7493 <s> ANATKITI 0.3979
-3.7493 <s> ANATKTA 0.3979
-3.7493 <s> ANATKTAN 0.3979
-3.7493 <s> ANATKTANTI 0.3979
-3.7493 <s> ANATKTATI 0.3979
-3.7493 <s> ANATKTHA 0.3979
-3.7493 <s> ANATKTHTI 0.3979
-3.7493 <s> ANATTANTI 0.3979
-3.7493 <s> ANATTANWA 0.7404
-3.7493 <s> ANATTATI 0.3979
-3.7493 <s> ANATTAWA 0.7782
-3.7493 <s> ANATTHA 0.3979
-3.7493 <s> ANATTHTI 0.3979
-3.7493 <s> ANATTHWA 0.7404
-2.8199 <s> ANCHA 0.0706
-3.7493 <s> ANGELICA -0.2881
-3.7493 <s> ANQA -0.2218
-3.5732 <s> ANQANA -0.2730
-3.7493 <s> ANSATATAÑA 1.1614
-3.3514 <s> ANTI -0.5740
-3.7493 <s> ANTUTAÑA 1.1614
-2.7951 <s> ANU -0.9031
-3.0961 <s> ANUNITATI 0.0458
-3.7493 <s> ANUNITHWA 0.6532
-3.4483 <s> APARAÑA -0.2341
-3.4483 <s> APILLA 0.2218
-3.7493 <s> APITU 0.6532
-3.5732 <s> APNAQIRI -0.3590
-3.5732 <s> APNAQIRIWA 0.6021
-3.7493 <s> APNAQTHA 0.3010
-3.7493 <s> APTAÑA 1.1614
-3.5732 <s> ARKASKIWA 0.1249
-3.4483 <s> ARKAÑA -0.2341
-3.5732 <s> ARMASIÑAKITI 0.1249
-3.4483 <s> ARMAÑA -0.2341
-3.4483 <s> ARNAQAÑA -0.2341
-2.8462 <s> ARSUM 0.0746
-3.5732 <s> ARSUPXAM 0.7782
-3.5732 <s> ARSUWIRUSA -0.3010
-3.4483 <s> ARSUÑA -0.2341
-3.2722 <s> ARU 0.5441
-3.4483 <s> ARUMA -0.5626
-3.5732 <s> ARUMAKIPANA 0.5229
-3.2722 <s> ARUMANTHI 0.5229
-3.5732 <s> ARUMATI 0.8016
-3.5732 <s> ARUMAWA 0.8016
-3.5732 <s> ARUNAKARU 0.1249
-3.5732 <s> ARUNTASISKIWA 0.1249
-3.4483 <s> ARUNTAÑA 0.4393
-2.7951 <s> ARXATIRI 0.0458
-3.5732 <s> ARXATIRIWA 0.5643
-3.5732 <s> ARÜTWA -0.3222
-3.5732 <s> ASILORU -0.3632
-3.5732 <s> ASILORUWA -0.1761
-3.3514 <s> ASIRU -0.5740
-3.5732 <s> ASJARIRI -0.1091
-2.7281 <s> ASKI -0.4771
-3.7493 <s> ASPIAZUNA -0.2285
-3.5732 <s> ASU 0.8016
-3.5732 <s> ASXARIRI 0.1249
-3.3514 <s> ATAMIRI 0.6232
-3.1473 <s> ATI -0.2684
-3.5732 <s> ATIPASKIWA 0.1249
-3.4483 <s> ATIPAÑA -0.2341
-3.7493 <s> ATTA 0.1761
-3.4483 <s> ATÜRU 0.2218
-3.4483 <s> AWATIRI 0.2218
-2.8199 <s> AWICHA 0.0706
-3.7493 <s> AWICHANITHWA 0.6532
-2.7951 <s> AWILA 0.0458
-2.7951 <s> AWKCH’I 0.0669
-3.4483 <s> AWKI -0.5051
-3.5732 <s> AWKIPAXA -0.2341
-3.5732 <s> AWKIRUSA 0.1249
-3.7493 <s> AWQA -0.2711
-2.7951 <s> AWTI 0.0458
-3.4483 <s> AWTJAÑA -0.2341
-3.7493 <s> AWTJITU 0.6532
-3.5732 <s> AWTU -0.3632
-3.5732 <s> AXSARIRI -0.1481
-3.4483 <s> AYCHA 0.2218
-3.7493 <s> AYNACHA -0.2711
-3.5732 <s> AYNIKIWA 0.1249
-3.4483 <s> AÑATHUYA 0.6767
-3.5732 <s> BENINKIRÏTHWA 0.4771
-3.5732 <s> CALACOTONA -0.3869
-3.5732 <s> CALIXTONA -0.2341
-3.7493 <s> CARLAKI 0.3979
-3.7493 <s> CARLAKITI 0.3979
-3.7493 <s> CARLAKTA 0.3979
-3.7493 <s> CARLAKTATI 0.3979
-3.7493 <s> CARLAKTHA 0.4771
-3.7493 <s> CARLAKTHTI 0.3979
-3.7493 <s> CARLATATI 0.3979
-3.5732 <s> CARLATAWA 0.3010
-3.7493 <s> CARLATHTI 0.3979
-3.7493 <s> CARLATHWA 0.3979
-3.7493 <s> CARLATI 0.3979
-3.5732 <s> CARLAWA 0.3010
-3.5732 <s> CENTERARUWA -0.1761
-3.4483 <s> CHACHA -0.1434
-3.5732 <s> CHAKA -0.3522
-3.5732 <s> CHALA 0.1249
-3.4483 <s> CHALLWA 0.6767
-3.4483 <s> CHARA 0.2218
-3.0089 <s> CHATIYAÑA 0.0726
-3.3514 <s> CHAYRU -0.5607
-3.5732 <s> CHHALLA 0.1249
-3.5732 <s> CHHAMA 0.1249
-3.4483 <s> CHHAQHAÑA -0.2341
-3.4483 <s> CHHICHHILLANKHA -0.4771
-3.5732 <s> CHHICHHILLANKHANAKA 0.1249
-3.4483 <s> CHHICHHIRANKHA -0.4994
-3.3514 <s> CHHIJCHHI -0.5809
-3.4483 <s> CHHIJCHHISKITI 0.6767
-3.3514 <s> CHHIJCHHISKIWA -0.5809
-3.4483 <s> CHHIJCHHIÑA -0.2341
-2.5732 <s> CHHIJLLAÑA -0.4228
-3.2722 <s> CHHIPU 0.5643
-3.5732 <s> CHHIPUNAKANIWA 0.5643
-2.7951 <s> CHHIQHANQARA 0.0458
-3.4483 <s> CHHIRI 0.6532
-3.3514 <s> CHHIWCHHI 0.6232
-3.5732 <s> CHHÜJTAYIRIWA -0.2730
-3.5732 <s> CHICHI 0.1249
-2.3514 <s> CHIKA 0.3010
-3.4483 <s> CHIKATA 0.2218
-3.5732 <s> CHIKAXA -0.2730
-3.5732 <s> CHIKÜRUXA -0.2730
-2.7951 <s> CHINUQA 0.0458
-3.5732 <s> CHIQATI 0.5229
-3.5732 <s> CHIQAWA 0.5229
-2.7716 <s> CHUKI 0.2653
-2.5879 <s> CHUPIKA 0.0290
-3.4483 <s> CHURAÑA -0.2341
-3.3514 <s> CHURI -0.5809
-3.5732 <s> CHURITA -0.1761
-3.5732 <s> CHUYMA -0.1372
-3.5732 <s> CHUYMANIWA -0.2341
-3.3514 <s> CH’AJA -0.3399
-3.5732 <s> CH’AKHA -0.4288
-2.5452 <s> CH’AKUÑA 0.0512
-3.5732 <s> CH’ALLA 0.1249
-3.4483 <s> CH’AMA -0.5051
-3.7493 <s> CH’AMAMPI -0.2711
-3.5732 <s> CH’AMAWA 0.6021
-3.4483 <s> CH’AMUÑA -0.1761
-3.4483 <s> CH’APAQA -0.5051
-2.7951 <s> CH’APHAQA 0.0458
-3.4483 <s> CH’ARKHI -0.5051
-3.4483 <s> CH’ASKA -0.4994
-3.3514 <s> CH’AXWAKU 0.6021
-3.3514 <s> CH’IKHI -0.6198
-3.7493 <s> CH’IKHIPXITI 0.3010
-3.5732 <s> CH’IKHIPXIWA 0.3010
-3.5732 <s> CH’IKHISI 0.1249
-3.7493 <s> CH’IKHITHWA 0.6532
-3.7493 <s> CH’IKHITI 0.3979
-3.5732 <s> CH’IKHIWA 0.5643
-3.7493 <s> CH’IQA 1.1614
-3.4483 <s> CH’IWI -0.5051
-3.4483 <s> CH’IWITI 0.6767
-3.4483 <s> CH’IWIWA -0.5051
-3.4483 <s> CH’IXI 0.2218
-2.5732 <s> CH’IYARA -0.2821
-2.8199 <s> CH’UKURI 0.3136
-2.5732 <s> CH’UMPHI -0.9630
-3.5732 <s> CH’UMPHINAKAWA 0.4771
-3.7493 <s> CH’UMPHIWA 0.3010
-3.4483 <s> CH’UQI -0.5051
-2.7716 <s> CH’USA 0.0435
-2.8199 <s> CH’USPI 0.0706
-3.4483 <s> CH’UXÑA -0.3924
-3.5732 <s> CH’UXÑAMPIWA 0.3680
-3.7493 <s> CH’UXÑAWA 0.5441
-2.7951 <s> CH’UÑU 0.0458
-3.5732 <s> COCHABAMBATÄTHWA 0.4771
-3.5732 <s> CONSERVATORIORU -0.3632
-3.5732 <s> CONSERVATORIORUWA -0.1761
-3.5732 <s> COPACABANANA -0.1761
-3.0503 <s> COPACABANARUWA 0.0792
-3.5732 <s> COTA -0.1761
-3.5732 <s> COTANA -0.1761
-3.7493 <s> CRUZ -0.2499
-3.7493 <s> CUADRATRACK -0.0792
-3.7493 <s> DANIEL -0.1249
-3.7493 <s> DEL -0.0792
-3.5732 <s> FABRICIOWA 0.3680
-3.7493 <s> FRICASE -0.2527
-3.7493 <s> FUTBOL -0.1249
-3.5732 <s> GIMNASIORU -0.3632
-3.5732 <s> GIMNASIORUWA -0.3010
-3.5732 <s> GUITARRA -0.2341
-3.4483 <s> ICHUMAMA -0.5051
-2.8199 <s> ICHUTATA 0.0706
-3.4483 <s> ICHUWAWA 0.2218
-3.4483 <s> IJMA 0.6532
-3.5732 <s> IKISAWA -0.3010
-3.5732 <s> IKISISKIWA 0.1249
-2.6032 <s> IKITATAÑA 0.0300
-3.0961 <s> IKIWA 0.0872
-3.4483 <s> IKIÑA -0.2341
-3.5732 <s> IKKITI 0.6021
-3.7493 <s> IKTHA -0.1549
-3.7493 <s> IKTHWA 0.6990
-2.3782 <s> ILLAPA 0.1668
-3.7493 <s> ILLAPAÑA 1.1614
-3.7493 <s> ILLAPJAÑA -0.2711
-3.4483 <s> ILLAPÜRU 0.6767
-3.4483 <s> IMANTAÑA -0.2341
-3.4483 <s> IMAÑA -0.2341
-3.7493 <s> INA -0.2139
-2.8199 <s> INAMAYA 0.0706
-3.5732 <s> INTERNETANIKTHTI 0.3010
-3.4483 <s> INTI 0.6767
-3.5732 <s> IPA -0.4025
-2.8742 <s> IPAJAXA 0.0792
-3.4483 <s> IPALA 0.2218
-3.4483 <s> IPI 0.6767
-3.4483 <s> IRAQT’ITAYA -0.5051
-3.4483 <s> IRNAQAWI -0.4994
-3.4483 <s> IRNAQAÑA 0.1761
-2.7951 <s> IRPIRI -0.8873
-2.7493 <s> ISI 0.2553
-3.5732 <s> ISINI -0.2341
-3.4483 <s> ISLA 0.1761
-3.3514 <s> ISPILLU -0.5809
-3.1473 <s> ISPILLUNAKAMAXA 0.0969
-3.4483 <s> IST’AM -0.4994
-3.5732 <s> IST’AMTI -0.3802
-2.8199 <s> IST’APXAM 0.0483
-3.7493 <s> IST’APXAMTI 0.5006
-3.5732 <s> IST’ASKIWA 0.1249
-3.3514 <s> IST’AÑA 0.1461
-3.4483 <s> IWIJA -0.4771
-2.8199 <s> IWISA 0.0706
-3.3514 <s> IXWIRI 0.6232
-3.0961 <s> IYAWA 0.0872
-3.5732 <s> JACHA 0.1249
-3.5732 <s> JACHASKIWA 0.1249
-3.5732 <s> JACHAYAÑAKITI 0.1249
-3.4483 <s> JACHAÑA -0.2341
-3.5732 <s> JACHT’APUNIWA -0.2730
-2.7716 <s> JACH’A 0.4288
-3.5732 <s> JACH’ANAKAWA 0.4771
-3.7493 <s> JACH’APXTHTI 0.3010
-3.7493 <s> JACH’APXTHWA 0.3979
-3.7493 <s> JACH’ATHTI 0.3979
-3.7493 <s> JACH’ATHWA 0.3979
-3.5732 <s> JACH’ATI 0.5229
-3.5732 <s> JACH’AWA 0.7533
-3.7493 <s> JAKASIRITHWA -0.1549
-3.5732 <s> JAKASTHA 0.8016
-3.4483 <s> JAKAÑA -0.2341
-3.4483 <s> JAKHU 0.6767
-3.5732 <s> JAKHURI -0.3108
-3.5732 <s> JAKHUWIPAXA 0.5643
-3.4483 <s> JAKHUÑA -0.2341
-3.4483 <s> JAK’A -0.4559
-3.1473 <s> JAK’ANA 0.0969
-3.4483 <s> JAK’U -0.5051
-3.5732 <s> JALANTA 0.0095
-3.3514 <s> JALJTATA -0.5740
-3.1473 <s> JALLU -0.3829
-3.4483 <s> JALLUSKITI -0.5051
-3.4483 <s> JALLUSKIWA -0.5051
-3.4483 <s> JALLUÑA -0.2341
-3.7493 <s> JALSU -0.2711
-3.5732 <s> JAMACH’IWA 0.1249
-3.4483 <s> JAMP’ATIÑA -0.2341
-2.7951 <s> JAMP’ATU 0.0458
-3.4483 <s> JAMUQIRI 0.2218
-1.7832 <s> JANI -0.1889
-3.5732 <s> JANIPUNIWA 0.1249
-3.5732 <s> JANITI -0.4731
-1.9398 <s> JANIWA -1.9551
-2.6032 <s> JANK’A 0.0300
-3.4483 <s> JANK’AKI -0.1154
-3.4483 <s> JANQ’U -0.3388
-3.4483 <s> JANQ’ULLA -0.5051
-2.5732 <s> JAQI -0.5229
-3.3514 <s> JAQICHATA -0.5740
-3.5732 <s> JAQINA -0.2730
-3.5732 <s> JAQIWA 0.7533
-3.3514 <s> JARARANKHU -0.5740
-3.4483 <s> JARU -0.4771
-2.7951 <s> JASA 0.0458
-3.5732 <s> JASAKI 0.3010
-3.5732 <s> JASAWA 0.5643
-3.5732 <s> JAT’IÑA -0.2341
-3.5732 <s> JAWIRARUWA -0.3388
-3.7493 <s> JAWQ’JAÑA 1.1614
-3.4483 <s> JAWSAÑA -0.2341
-3.4483 <s> JAXU 0.6532
-2.7951 <s> JAYA 0.0669
-3.0961 <s> JAYANA 0.0872
-3.5732 <s> JAYATI 0.5229
-3.5732 <s> JAYAWA 0.5229
-2.8199 <s> JAYLLIRI 0.0706
-3.5732 <s> JAYLLISKIWA 0.1249
-3.4483 <s> JAYLLIÑA -0.2341
-2.8199 <s> JAYP’U -1.0656
-3.5732 <s> JAYP’UKIPANA 0.5229
-3.5732 <s> JAYP’URUXA -0.2730
-3.3514 <s> JAYRA -0.5528
-3.7493 <s> JAYRAPXTATI 0.3010
-3.5732 <s> JAYRAPXTAWA 0.3010
-3.0503 <s> JAYRASISKTAWA 0.0414
-3.4483 <s> JAYRASIÑA -0.2341
-3.7493 <s> JAYRATATI 0.3979
-3.5732 <s> JAYRATAWA 0.6690
-3.5732 <s> JAYTAMTI 0.1249
-2.7951 <s> JAYU 0.0458
-3.5732 <s> JICHHAXA 0.1249
-3.3514 <s> JICHHÜRU 0.5798
-3.5732 <s> JICHÜRU 0.1249
-3.4483 <s> JIKHANI -0.4771
-3.5732 <s> JIKISIPXTHA -0.2218
-3.5732 <s> JIKISIÑAJAWA 0.5229
-3.0961 <s> JIKISIÑKAMA 0.0458
-3.4483 <s> JILA -0.5263
-3.1473 <s> JILANAKANITATI 0.0512
-3.7493 <s> JILANITHWA 0.6532
-3.7493 <s> JILATA -0.2430
-3.5732 <s> JILATAJAMPIWA -0.2341
-3.0503 <s> JILATAJAWA 0.0792
-3.4483 <s> JILAÑA -0.2341
-3.5732 <s> JILÏRI -0.3222
-3.3514 <s> JINCHU 0.1461
-2.1639 <s> JISA 0.0580
-3.4483 <s> JISKT’AÑA -0.2341
-3.2722 <s> JISK’A -0.2747
-3.5732 <s> JISK’AWA 0.5229
-3.5732 <s> JIST’ANTATA -0.3010
-3.5732 <s> JIST’ANTATANA 0.1249
-3.4483 <s> JIST’ANTAÑA 0.9031
-2.6032 <s> JIST’ARAÑA 0.0300
-2.3428 <s> JIWA 0.0633
-2.7493 <s> JIWAKI -0.8403
-3.7493 <s> JIWAKIPXTANTI 0.3010
-3.7493 <s> JIWAKIPXTANWA 0.3979
-3.7493 <s> JIWAKITANTI 0.3979
-3.7493 <s> JIWAKITANWA 0.3979
-3.7493 <s> JIWAKITHWA 0.8451
-2.8742 <s> JIWAKIWA 0.0280
-3.3514 <s> JIWASA 0.5798
-3.3514 <s> JIWASANAKA 0.5798
-1.9500 <s> JIWASANAKAXA 0.0872
-3.0961 <s> JIWASANKITI 0.0458
-2.8742 <s> JIWASANKIWA 0.0280
-3.5732 <s> JIWASANKKITI 0.5229
-1.9265 <s> JIWASAXA 0.0803
-3.3514 <s> JIWAÑA 0.1461
-3.5732 <s> JIWT’AYIRI -0.3108
-3.5732 <s> JIWXÄ -0.2341
-2.7951 <s> JUKU 0.0458
-3.3514 <s> JUKUMARI -0.5740
-3.4483 <s> JUK’A 0.2218
-3.5732 <s> JUK’AMPI -0.3632
-3.3514 <s> JUMA -0.5740
-3.0089 <s> JUMANAKA -0.7861
-1.9431 <s> JUMANAKAXA 0.0859
-3.0503 <s> JUMANKITI 0.0414
-3.0961 <s> JUMANKIWA 0.0458
-3.5732 <s> JUMANKKITI 0.5229
-3.5732 <s> JUMASA -0.3388
-2.8462 <s> JUMASTI 0.5812
-1.8408 <s> JUMAXA 0.0937
-3.5732 <s> JUMP’IWA -0.3388
-3.2722 <s> JUNT’U -0.5619
-3.4483 <s> JUNT’USKITI 0.2218
-3.4483 <s> JUNT’USKIWA -0.5051
-3.4483 <s> JUNT’UTI -0.5051
-2.8199 <s> JUNT’UWA 0.1845
-3.4483 <s> JUNT’ÜMA 0.6767
-3.3514 <s> JUPA -0.5740
-3.3514 <s> JUPANAKA -0.5740
-1.9431 <s> JUPANAKAXA 0.0887
-3.0961 <s> JUPANKITI 0.0458
-3.0961 <s> JUPANKIWA 0.0458
-3.5732 <s> JUPANKKITI 0.5229
-1.6701 <s> JUPAXA 0.0762
-3.4483 <s> JUPHA -0.5051
-2.7951 <s> JUQ’ARA 0.0458
-3.3514 <s> JURPÜRU -0.5740
-3.4483 <s> JUTAM -0.4994
-3.5732 <s> JUTAMTI -0.3802
-3.5732 <s> JUTANI 0.1249
-3.4483 <s> JUTAPXAM 0.6532
-3.7493 <s> JUTAPXAMTI 0.5006
-3.4483 <s> JUTAÑA -0.2341
-2.6032 <s> JUTIRI 0.0300
-3.3514 <s> JUYKHU -0.5740
-2.9042 <s> JUYPHI 0.3310
-3.3514 <s> KALLACHI 0.6021
-3.0503 <s> KAMISAKI 0.0414
-3.5732 <s> KANKA 0.1249
-3.7493 <s> KAREN 0.1761
-3.7493 <s> KARLAKI 0.1761
-3.7493 <s> KARLAKITI 0.1761
-3.7493 <s> KARLAKTA 0.1761
-3.7493 <s> KARLAKTAN 0.1761
-3.7493 <s> KARLAKTANTI 0.1761
-3.7493 <s> KARLAKTATI 0.1761
-3.7493 <s> KARLAKTHA 0.1761
-3.7493 <s> KARLAKTHTI 0.1761
-3.7493 <s> KARLAPKTA 0.1761
-3.7493 <s> KARLAPKTHA 0.1761
-3.7493 <s> KARLAPXTHWA 0.1761
-3.7493 <s> KARLATANTI 0.1761
-3.7493 <s> KARLATANWA 0.1761
-3.7493 <s> KARLATATI 0.1761
-3.5732 <s> KARLATAWA 0.1249
-3.7493 <s> KARLATHTI 0.1761
-3.7493 <s> KARLATHWA 0.1761
-3.7493 <s> KARLATI 0.1761
-3.5732 <s> KARLAWA 0.1249
-2.7951 <s> KATARI 0.0458
-3.5732 <s> KATUQIRIXA -0.2730
-2.3971 <s> KAWKI -0.6884
-3.5732 <s> KAWKINKIRÏSA 0.5643
-3.5732 <s> KAWKINKIRÏTASA 0.5643
-2.8462 <s> KAWKINSA 0.0746
-3.3514 <s> KAWKIRI -0.5740
-3.0503 <s> KAWKIRUSA 0.0792
-2.8462 <s> KAYA 0.0746
-3.4483 <s> KAYU -0.5051
-3.5732 <s> KAYUJAWA 0.1249
-3.0961 <s> KAYUJAXA 0.0872
-3.5732 <s> KAYUNI -0.3522
-3.5732 <s> KAYUNIWA -0.2730
-3.5732 <s> KAYUPAWA 0.1249
-3.3514 <s> KHAKHA -0.5740
-3.5732 <s> KHANKHA 0.1249
-3.4483 <s> KHAYA -0.5051
-3.3514 <s> KHAYANA -0.5528
-3.4483 <s> KHAYANAKA -0.4771
-3.1473 <s> KHAYASTI 0.0512
-3.0961 <s> KHAYAXA 0.0872
-3.5732 <s> KHITHÏPXTSA -0.0512
-3.2052 <s> KHITI -0.7899
-3.1473 <s> KHITIMPISA 0.0969
-3.7493 <s> KHITINAKAPXTHSA 0.0669
-2.9364 <s> KHITINKISA 0.0322
-3.0961 <s> KHITISA 0.0872
-3.5732 <s> KHITÏTSA -0.2615
-3.3514 <s> KHUCHHI -0.5740
-3.5732 <s> KHUCHHUSKIWA 0.1249
-3.3514 <s> KHULLU -0.5740
-3.4483 <s> KHUNU -0.5051
-2.7951 <s> KHUNUSKITI 0.0458
-3.4483 <s> KHUNUSKIWA -0.5051
-3.4483 <s> KHUNUÑA -0.2341
-3.4483 <s> KHURI 0.2218
-3.4483 <s> KHUYUÑA -0.2341
-3.7493 <s> KILLIÑA 1.1614
-2.5590 <s> KILLT’AÑA 0.0272
-2.0089 <s> KIMSA -0.8421
-3.5732 <s> KIMSANI -0.2910
-2.5452 <s> KIMSAQALLQU 0.0389
-3.5732 <s> KIMSAQALLQUNI -0.3724
-3.3514 <s> KIMSAQALLQÜRI 0.6232
-2.7951 <s> KIMSÏRI 0.0669
-3.4483 <s> KUKA 0.1761
-3.5732 <s> KULIRASKIWA 0.5643
-3.7493 <s> KULIRASKTHWA 0.6990
-3.3514 <s> KULLAKA 0.1461
-3.0503 <s> KULLAKAJAMPI 0.0792
-3.4483 <s> KULLI 0.6767
-2.3514 <s> KUNA -1.2331
-3.3514 <s> KUNAMPISA 0.6021
-3.2722 <s> KUNAPACHA 0.5229
-2.5189 <s> KUNAS 0.0367
-2.2374 <s> KUNASA -1.4032
-2.8742 <s> KUNATA 0.0280
-3.5732 <s> KUNATIXA 0.1249
-3.3514 <s> KUNAWSA -0.5740
-2.7493 <s> KUNJAMA 0.2553
-3.3514 <s> KUNJAMASA 0.1461
-3.3514 <s> KUNKA -0.5809
-3.0961 <s> KUNKAPAXA 0.0872
-2.4940 <s> KUNSA -0.9112
-2.6032 <s> KUPI 0.0300
-2.7493 <s> KURMI 0.5441
-3.7493 <s> KURMITI 0.1761
-2.8199 <s> KURMIWA 0.0706
-3.4483 <s> KURMÜRU 0.6767
-3.4483 <s> KURURU -0.5051
-3.7493 <s> KURUSA 0.1761
-3.0961 <s> KUSA 0.0872
-3.4483 <s> KUSI -0.2341
-3.4483 <s> KUSISIÑA -0.2341
-3.5732 <s> KUTI -0.3590
-3.4483 <s> KUTIYAÑA -0.2341
-3.7493 <s> KWONDO -0.1549
-3.7493 <s> K’ACHA -0.2711
-2.5590 <s> K’ACHAKI 0.1807
-3.3514 <s> K’ALLA -0.5740
-3.5732 <s> K’ANK’A 0.1249
-3.4483 <s> K’ARA 0.2218
-3.0089 <s> K’ARI -0.0714
-3.4483 <s> K’ARISIÑA -0.2341
-3.3514 <s> K’AWNA -0.5809
-3.3514 <s> K’AYRA 0.5798
-3.0961 <s> K’ISA -0.4102
-3.3514 <s> K’ISIMIRA 0.5798
-2.8199 <s> K’ULLU 0.0706
-3.4483 <s> K’UMARA 0.6532
-2.6032 <s> K’UMT’AÑA 0.0300
-2.8199 <s> K’UMU 0.0483
-2.7951 <s> K’UTI 0.0458
-3.7493 <s> LA -0.2908
-2.7079 <s> LAKA -0.8141
-3.2722 <s> LAPAKA -0.4260
-3.5732 <s> LAPAQA 0.1249
-3.2722 <s> LAPHI 0.5229
-3.5732 <s> LAPHINI -0.2730
-3.3514 <s> LAP’A -0.5740
-3.4483 <s> LAQUSI -0.5051
-2.8199 <s> LAQ’A 0.0706
-3.3514 <s> LAQ’U 0.5798
-2.8199 <s> LARAMA 0.0706
-3.5732 <s> LARAMAWA 0.5229
-2.7716 <s> LARI 0.2775
-3.0089 <s> LARIJAXA 0.0726
-3.7493 <s> LARKI 0.3979
-3.7493 <s> LARKITI 0.3979
-3.7493 <s> LARKTA 0.3979
-3.7493 <s> LARKTAN 0.3979
-3.7493 <s> LARKTANTI 0.3979
-3.5732 <s> LARKTATI 0.3010
-3.7493 <s> LARKTHA 0.3979
-3.7493 <s> LARKTHTI 0.3979
-3.7493 <s> LARTANTI 0.3979
-3.7493 <s> LARTANWA 0.3979
-3.7493 <s> LARTATI 0.3979
-3.7493 <s> LARTAWA 0.3979
-3.7493 <s> LARTHTI 0.3979
-3.7493 <s> LARTHWA 0.3979
-3.7493 <s> LARUPKI 0.3979
-3.7493 <s> LARUPKITI 0.3979
-3.7493 <s> LARUPKTA 0.3979
-3.7493 <s> LARUPKTAN 0.3979
-3.7493 <s> LARUPKTANTI 0.3979
-3.7493 <s> LARUPKTATI 0.3979
-3.7493 <s> LARUPKTHA 0.3979
-3.7493 <s> LARUPKTHTI 0.3979
-3.7493 <s> LARUPXITI 0.3979
-3.5732 <s> LARUPXIWA 0.3010
-3.7493 <s> LARUPXTANTI 0.3979
-3.7493 <s> LARUPXTANWA 0.3979
-3.7493 <s> LARUPXTATI 0.3979
-3.5732 <s> LARUPXTAWA 0.3010
-3.7493 <s> LARUPXTHTI 0.3979
-3.7493 <s> LARUPXTHWA 0.3979
-3.5732 <s> LARUSKIWA 0.1249
-3.7493 <s> LARUTI 0.3979
-3.7493 <s> LARUWA 0.3979
-3.2722 <s> LAXRA 0.1249
-3.7493 <s> LEONARDO -0.1919
-3.5732 <s> LEONARDOWA 0.6690
-3.3514 <s> LIQI 0.8451
-3.3514 <s> LIRQ’U -0.5740
-3.4483 <s> LLAJLLA -0.4771
-3.5732 <s> LLAKISIMTI 0.5229
-3.4483 <s> LLAKISIÑA -0.2341
-2.7951 <s> LLAMAYU 0.0669
-3.5732 <s> LLAMP’U 0.8016
-2.8199 <s> LLAWCH’A 0.0706
-3.3514 <s> LLAYTHA 0.6232
-3.7493 <s> LLAYTHAKI 0.3979
-3.7493 <s> LLAYTHAKITI 0.3010
-3.7493 <s> LLAYTHAPKI 0.3979
-3.7493 <s> LLAYTHAPKITI 0.3010
-3.5732 <s> LLIPHUSA 0.1249
-3.5732 <s> LLUCHHU 0.1249
-3.5732 <s> LLUCH’U 0.1249
-3.4483 <s> LLUMPAQA 0.2218
-3.3514 <s> LLUNK’U 0.5798
-3.7493 <s> LLUNK’UKTAN 0.3979
-3.7493 <s> LLUNK’UKTANTI 0.3010
-3.7493 <s> LLUNK’UPKTAN 0.3979
-3.7493 <s> LLUNK’UPKTANTI 0.3010
-3.7493 <s> LLUNK’USIÑA 1.1614
-3.2722 <s> LLÄTUNKA 0.7533
-3.5732 <s> LLÄTUNKANI 0.0669
-3.4483 <s> LLÄTUNKÏRI -0.5103
-3.5732 <s> LUCIANAWA 0.2218
-3.3514 <s> LUK’ANA 0.2041
-2.7951 <s> LULI 0.0458
-3.3514 <s> LUNQHU 0.6021
-3.7493 <s> LUNQHUKTA 0.3979
-3.7493 <s> LUNQHUKTATI 0.3010
-3.7493 <s> LUNQHUPKTA 0.3979
-3.7493 <s> LUNQHUPKTATI 0.3010
-3.7493 <s> LUNTHATAPXITU 0.8751
-3.4483 <s> LUNTHATAÑA -0.2341
-2.8199 <s> LUPI 0.0706
-2.7951 <s> LUPISKITI 0.0458
-3.4483 <s> LUPISKIWA 0.2218
-3.5732 <s> LUPIÑA 0.2218
-3.4483 <s> LUP’IÑA 0.0969
-3.5732 <s> LUP’KITI 0.5229
-3.4483 <s> LURAM -0.4994
-3.5732 <s> LURAMTI 0.3468
-3.4483 <s> LURAPXAM 0.6532
-3.7493 <s> LURAPXAMTI -0.2304
-3.5732 <s> LURAPXAÑÄNI 0.8239
-3.7493 <s> LURAPXTA 0.6990
-3.7493 <s> LURASKAPXTA 0.6990
-3.5732 <s> LURASKIWA 0.1249
-3.7493 <s> LURASKTHA 0.6532
-3.7493 <s> LURAWINIKTHTI 0.7782
-3.0961 <s> LURAWINITHWA 0.0458
-3.3514 <s> LURAÑA -0.4771
-3.5732 <s> LURIRI 0.3680
-3.5732 <s> LURIRISA 0.5643
-3.5732 <s> LURTHA -0.1761
-3.5732 <s> LURT’AÑA -0.2730
-3.3514 <s> MACHAQA -0.5809
-3.5732 <s> MAKHATASKIWA 0.1249
-3.5732 <s> MAKHATAWINKTASA 0.5643
-2.6032 <s> MAKHATAÑA 0.0300
-3.5732 <s> MAKHATAÑÄNI 0.7270
-3.0961 <s> MALENAMPI 0.0872
-3.5732 <s> MALLASARU -0.3632
-3.5732 <s> MALLASARUWA -0.1761
-3.4483 <s> MALLQ’A 0.2218
-3.4483 <s> MAMA -0.5051
-3.0503 <s> MAMAJAXA 0.0792
-3.3514 <s> MAMANI -0.5740
-3.3514 <s> MAMURAYA 0.6021
-3.4483 <s> MANQHA -0.4994
-3.5732 <s> MANQHANA 0.1249
-3.5732 <s> MANQHATA -0.2730
-3.5732 <s> MANQ’A 0.1249
-2.8199 <s> MANQ’AM 0.0483
-3.5732 <s> MANQ’AMTI -0.3522
-3.3514 <s> MANQ’APXAM -0.5576
-3.5732 <s> MANQ’APXAMTI 0.8239
-3.5732 <s> MANQ’ASKIWA 0.1249
-3.5732 <s> MANQ’ASKTHWA 0.5229
-3.0961 <s> MANQ’ATA 0.0872
-3.0503 <s> MANQ’AXA 0.0792
-3.4483 <s> MANQ’AÑA -0.5421
-3.5732 <s> MANQ’AÑAMAWA 0.5229
-3.5732 <s> MANQ’AÑATAKI 0.1249
-3.0503 <s> MANQ’IRI 0.0792
-3.7493 <s> MANQ’THA 0.1761
-2.8199 <s> MANTAM 0.0483
-3.5732 <s> MANTAMTI -0.3802
-3.4483 <s> MANTAPXAM -0.4994
-3.5732 <s> MANTAPXAMTI 0.2430
-3.5732 <s> MANTAWI -0.1761
-3.5732 <s> MANTAWINAKA -0.3388
-3.5732 <s> MANTAWIXA 0.5229
-3.4483 <s> MANTAÑA -0.2341
-3.5732 <s> MANTIXA -0.2218
-3.5732 <s> MANTKITI 0.1249
-3.5732 <s> MAQ’AÑATAKI -0.3388
-2.9042 <s> MARA -0.9203
-3.7493 <s> MARANIKI 0.3979
-3.7493 <s> MARANIKITI 0.3979
-3.7493 <s> MARANIKTA 0.3979
-3.7493 <s> MARANIKTAN 0.3979
-3.7493 <s> MARANIKTANTI 0.3979
-3.7493 <s> MARANIKTATI 0.3979
-3.7493 <s> MARANIKTHA 0.3979
-3.7493 <s> MARANIKTHTI 0.4771
-3.7493 <s> MARANIPKI 0.3979
-3.7493 <s> MARANIPKITI 0.3979
-3.7493 <s> MARANIPKTA 0.3979
-3.7493 <s> MARANIPKTAN 0.3979
-3.7493 <s> MARANIPKTANTI 0.3979
-3.7493 <s> MARANIPKTATI 0.3979
-3.7493 <s> MARANIPKTHA 0.4771
-3.7493 <s> MARANIPKTHTI 0.3979
-3.7493 <s> MARANIPXITI 0.3979
-3.5732 <s> MARANIPXIWA 0.3010
-3.7493 <s> MARANIPXTANTI 0.3979
-3.7493 <s> MARANIPXTANWA 0.3979
-3.7493 <s> MARANIPXTATI 0.3979
-3.5732 <s> MARANIPXTAWA 0.3010
-3.7493 <s> MARANIPXTHTI 0.3979
-3.7493 <s> MARANIPXTHWA 0.3979
-3.7493 <s> MARANITANTI 0.3979
-3.7493 <s> MARANITANWA 0.3979
-3.5732 <s> MARANITASA 0.6368
-3.7493 <s> MARANITATI 0.4771
-3.5732 <s> MARANITAWA 0.3010
-3.7493 <s> MARANITHTI 0.3979
-3.7493 <s> MARANITHWA 0.0669
-3.7493 <s> MARANITI 0.3979
-3.5732 <s> MARANIWA 0.6990
-3.7493 <s> MARANKTHWA -0.1761
-3.3514 <s> MARKA -0.5740
-3.7493 <s> MARKANKIRIKI 0.3979
-3.7493 <s> MARKANKIRIKITI 0.3979
-3.7493 <s> MARKANKIRIPKI 0.3979
-3.7493 <s> MARKANKIRIPKITI 0.3979
-3.7493 <s> MARKANKIRIPKTAN 0.3979
-3.7493 <s> MARKANKIRIPKTHTI 0.3979
-3.7493 <s> MARKANKIRIPXITI 0.3979
-3.5732 <s> MARKANKIRIPXIWA 0.3010
-3.7493 <s> MARKANKIRITANWA 0.4771
-3.7493 <s> MARKANKIRITI 0.3979
-3.5732 <s> MARKANKIRIWA 0.6690
-3.7493 <s> MARKANKIRÏKTA 0.3979
-3.7493 <s> MARKANKIRÏKTAN 0.3979
-3.7493 <s> MARKANKIRÏKTANTI 0.3979
-3.7493 <s> MARKANKIRÏKTATI 0.3979
-3.7493 <s> MARKANKIRÏKTHA 0.3979
-3.7493 <s> MARKANKIRÏKTHTI 0.3979
-3.7493 <s> MARKANKIRÏPKTA 0.3979
-3.7493 <s> MARKANKIRÏPKTANTI 0.3979
-3.7493 <s> MARKANKIRÏPKTATI 0.3979
-3.7493 <s> MARKANKIRÏPKTHA 0.3979
-3.7493 <s> MARKANKIRÏPXTANTI 0.3979
-3.7493 <s> MARKANKIRÏPXTANWA 0.4771
-3.7493 <s> MARKANKIRÏPXTATI 0.3979
-3.5732 <s> MARKANKIRÏPXTAWA 0.3010
-3.7493 <s> MARKANKIRÏPXTHTI 0.3979
-3.7493 <s> MARKANKIRÏPXTHWA 0.3979
-3.7493 <s> MARKANKIRÏTANTI 0.3979
-3.7493 <s> MARKANKIRÏTATI 0.3979
-3.5732 <s> MARKANKIRÏTAWA 0.3010
-3.7493 <s> MARKANKIRÏTHTI 0.3979
-3.7493 <s> MARKANKIRÏTHWA 0.0414
-3.5732 <s> MARKARUWA -0.3388
-3.5732 <s> MARKASATA 0.1249
-3.7493 <s> MARKATAKI 0.4771
-3.7493 <s> MARKATAKITI 0.3979
-3.7493 <s> MARKATAPKI 0.3979
-3.7493 <s> MARKATAPKITI 0.4771
-3.7493 <s> MARKATAPXITI 0.4771
-3.5732 <s> MARKATAPXIWA 0.3680
-3.5732 <s> MARKATASA 0.5643
-3.7493 <s> MARKATATI 0.3979
-3.5732 <s> MARKATAWA 0.6368
-3.7493 <s> MARKATÄKTA 0.3979
-3.7493 <s> MARKATÄKTAN 0.3979
-3.7493 <s> MARKATÄKTANTI 0.3010
-3.7493 <s> MARKATÄKTATI 0.3979
-3.7493 <s> MARKATÄKTHA 0.3979
-3.7493 <s> MARKATÄKTHTI 0.3979
-3.7493 <s> MARKATÄPKTA 0.3979
-3.7493 <s> MARKATÄPKTAN 0.3979
-3.7493 <s> MARKATÄPKTANTI 0.3979
-3.7493 <s> MARKATÄPKTATI 0.3979
-3.7493 <s> MARKATÄPKTHA 0.3979
-3.7493 <s> MARKATÄPKTHTI 0.3979
-3.7493 <s> MARKATÄPXTANTI 0.3979
-3.7493 <s> MARKATÄPXTANWA 0.3979
-3.7493 <s> MARKATÄPXTATI 0.3979
-3.7493 <s> MARKATÄPXTAWA 0.3979
-3.7493 <s> MARKATÄPXTHTI 0.3979
-3.7493 <s> MARKATÄPXTHWA 0.3979
-3.7493 <s> MARKATÄTANTI 0.3979
-3.7493 <s> MARKATÄTANWA 0.4771
-3.5732 <s> MARKATÄTASA 0.5643
-3.7493 <s> MARKATÄTATI 0.3979
-3.7493 <s> MARKATÄTAWA 0.3979
-3.7493 <s> MARKATÄTHTI 0.3979
-3.7493 <s> MARKATÄTHWA 0.8129
-3.7493 <s> MARMI -0.2711
-2.5732 <s> MASI -1.1963
-3.5732 <s> MASIJAMPI -0.3010
-3.5732 <s> MASIMAXA -0.3522
-3.5732 <s> MASINAKA 0.5643
-3.1473 <s> MASINAKAMASTI 0.0512
-3.5732 <s> MASINAKANITASA 0.2218
-3.7493 <s> MASINAKANITHWA 0.6990
-3.7493 <s> MASINITHWA 0.7782
-3.7493 <s> MASIPKI 0.3979
-3.7493 <s> MASIPKITI 0.3979
-3.7493 <s> MASIPKTA 0.3979
-3.7493 <s> MASIPKTAN 0.6532
-3.7493 <s> MASIPKTANTI 0.5441
-3.7493 <s> MASIPKTATI 0.3979
-3.7493 <s> MASIPKTHA 0.4771
-3.7493 <s> MASIPKTHTI 0.3979
-3.7493 <s> MASIPXITI 0.3979
-3.5732 <s> MASIPXIWA 0.3010
-3.5732 <s> MASIPXTANTI 0.3010
-3.7493 <s> MASIPXTANWA 0.3979
-3.7493 <s> MASIPXTATI 0.3979
-3.5732 <s> MASIPXTAWA 0.3010
-3.7493 <s> MASIPXTHTI 0.3979
-3.7493 <s> MASIPXTHWA 0.3979
-3.5732 <s> MASISARU 0.1249
-3.5732 <s> MASITANTI 0.3010
-3.7493 <s> MASITANWA 0.3979
-3.0503 <s> MATEMATICAXA 0.0792
-3.5732 <s> MATI -0.1761
-3.5732 <s> MATIMATIKAXA 0.1249
-3.3514 <s> MAYA -0.6276
-3.0961 <s> MAYAMPI 0.0872
-3.5732 <s> MAYANI 0.0954
-3.4483 <s> MAYIÑA -0.2341
-3.5732 <s> MAYT’ASISKIWA 0.1249
-3.5732 <s> MAYT’AÑA -0.1761
-2.7716 <s> MAYÏRI 0.2653
-3.5732 <s> MEGA 0.2218
-3.4483 <s> MISK’I 0.2218
-3.7493 <s> MISTKANI 0.3979
-3.7493 <s> MISTKANITI 0.3979
-3.5732 <s> MISTKAPXANI 0.3010
-3.7493 <s> MISTKAPXANITI 0.3979
-3.5732 <s> MISTKAPXAÑÄNI 0.3010
-3.7493 <s> MISTKAPXAÑÄNITI 0.3979
-3.7493 <s> MISTKAPXÄ 0.3979
-3.5732 <s> MISTKAPXÄTA 0.3010
-3.7493 <s> MISTKAPXÄTATI 0.3979
-3.7493 <s> MISTKAPXÄTI 0.3979
-3.5732 <s> MISTKAÑÄNI 0.3010
-3.7493 <s> MISTKAÑÄNITI 0.3979
-3.7493 <s> MISTKÄ 0.3979
-3.7493 <s> MISTKÄTA 0.3979
-3.5732 <s> MISTKÄTATI 0.3010
-3.5732 <s> MISTKÄTI 0.3010
-3.4483 <s> MISTUM 0.6532
-3.5732 <s> MISTUMTI 0.3468
-3.5732 <s> MISTUNITI 0.3010
-3.5732 <s> MISTUNIWA 0.3010
-2.8199 <s> MISTUPXAM 0.0483
-3.7493 <s> MISTUPXAMTI -0.2304
-3.5732 <s> MISTUPXANITI 0.3010
-3.5732 <s> MISTUPXANIWA 0.3010
-3.5732 <s> MISTUPXAÑÄNITI 0.3010
-3.5732 <s> MISTUPXAÑÄNIWA 0.3010
-3.5732 <s> MISTUPXÄTATI 0.3010
-3.7493 <s> MISTUPXÄTAWA 0.3979
-3.5732 <s> MISTUPXÄTI 0.3010
-3.5732 <s> MISTUPXÄWA 0.3010
-3.0503 <s> MISTUÑA -0.3310
-3.5732 <s> MISTUÑÄNITI 0.3010
-3.5732 <s> MISTUÑÄNIWA 0.3010
-3.5732 <s> MISTÜTATI 0.3010
-3.5732 <s> MISTÜTAWA 0.3010
-3.7493 <s> MISTÜTI 0.3979
-3.5732 <s> MISTÜWA 0.3010
-3.4483 <s> MUJLLI 0.6767
-3.7493 <s> MUNAPKI 0.3979
-3.7493 <s> MUNAPKITI 0.3979
-3.7493 <s> MUNAPKTA 0.3979
-3.7493 <s> MUNAPKTAN 0.3010
-3.7493 <s> MUNAPKTANTI 0.3010
-3.7493 <s> MUNAPKTATI 0.3979
-3.7493 <s> MUNAPKTHA 0.3979
-3.7493 <s> MUNAPKTHTI 0.3979
-3.7493 <s> MUNAPXITI 0.3979
-3.5732 <s> MUNAPXITUWA 0.5229
-3.5732 <s> MUNAPXIWA 0.3010
-3.7493 <s> MUNAPXTANTI 0.3010
-3.7493 <s> MUNAPXTANWA 0.3010
-3.7493 <s> MUNAPXTATI 0.3979
-3.5732 <s> MUNAPXTAWA 0.3010
-3.7493 <s> MUNAPXTHTI 0.3979
-3.7493 <s> MUNAPXTHWA 0.3979
-3.2052 <s> MUNATA -0.3680
-3.5732 <s> MUNATAMAXA 0.3010
-3.7493 <s> MUNATANIKI 0.3979
-3.7493 <s> MUNATANIKITI 0.4771
-3.7493 <s> MUNATANIKTA 0.3979
-3.7493 <s> MUNATANIKTAN 0.3979
-3.7493 <s> MUNATANIKTANTI 0.3979
-3.7493 <s> MUNATANIKTATI 0.3979
-3.7493 <s> MUNATANIKTHA 0.4771
-3.7493 <s> MUNATANIKTHTI 0.9777
-3.7493 <s> MUNATANIPKI 0.3979
-3.7493 <s> MUNATANIPKITI 0.5441
-3.7493 <s> MUNATANIPKTA 0.4771
-3.7493 <s> MUNATANIPKTAN 0.3979
-3.7493 <s> MUNATANIPKTANTI 0.4771
-3.7493 <s> MUNATANIPKTATI 0.4771
-3.7493 <s> MUNATANIPKTHA 0.3979
-3.7493 <s> MUNATANIPKTHTI 0.5441
-3.7493 <s> MUNATANIPXITI 0.3979
-3.5732 <s> MUNATANIPXIWA 0.3010
-3.7493 <s> MUNATANIPXTANTI 0.4771
-3.7493 <s> MUNATANIPXTANWA 0.4771
-3.7493 <s> MUNATANIPXTATI 0.3979
-3.5732 <s> MUNATANIPXTAWA 0.3010
-3.7493 <s> MUNATANIPXTHTI 0.3979
-3.7493 <s> MUNATANIPXTHWA 0.3979
-3.7493 <s> MUNATANITANTI 0.3979
-3.7493 <s> MUNATANITANWA 0.3979
-3.0503 <s> MUNATANITATI 0.4472
-3.5732 <s> MUNATANITAWA 0.3680
-3.7493 <s> MUNATANITHTI 0.4771
-3.5732 <s> MUNATANITHWA 0.8451
-3.7493 <s> MUNATANITI 0.3979
-3.5732 <s> MUNATANIWA 0.3680
-3.5732 <s> MUNATAWA -0.2730
-3.5732 <s> MUNAYPATANA -0.3869
-3.4483 <s> MUNAÑA -0.2341
-3.7493 <s> MUNITI 0.3979
-3.5732 <s> MUNIWA 0.3010
-3.7493 <s> MUNKI 0.3979
-3.7493 <s> MUNKITI 0.3979
-3.7493 <s> MUNKTA 0.3979
-3.7493 <s> MUNKTAN 0.3010
-3.7493 <s> MUNKTANTI 0.3010
-3.7493 <s> MUNKTATI 0.3979
-3.7493 <s> MUNKTHA 0.3979
-3.7493 <s> MUNKTHTI 0.3979
-3.5732 <s> MUNTA 0.5229
-3.7493 <s> MUNTANTI 0.3010
-3.7493 <s> MUNTANWA 0.3010
-3.7493 <s> MUNTATI 0.3979
-3.7493 <s> MUNTAWA 0.3979
-3.7493 <s> MUNTHA 0.6990
-3.7493 <s> MUNTHTI 0.3979
-3.7493 <s> MUNTHWA 0.6463
-3.7493 <s> MUNTKTHTI 0.6532
-2.8462 <s> MUQU 0.0512
-3.2722 <s> MURTURIYA -0.6320
-3.5732 <s> MUSEORU -0.3632
-3.5732 <s> MUSEORUWA -0.1761
-3.0089 <s> MUSICAXA 0.0726
-3.5732 <s> MUSIKAXA 0.1249
-3.5732 <s> MUSK’AWA 0.5643
-3.5732 <s> MUSPASKIWA 0.1249
-3.3514 <s> MUSQ’A -0.5809
-3.5732 <s> MUYUNTATA -0.3010
-3.5732 <s> MUYUNTATÄTHWA -0.2730
-3.0961 <s> MÄ -0.6702
-3.2722 <s> MÄKI -0.6398
-2.7951 <s> NASA 0.0669
-2.7951 <s> NAYA 0.0458
-3.7493 <s> NAYAKTHTI 0.6990
-3.5732 <s> NAYAMPI -0.2730
-3.0961 <s> NAYANKIWA 0.2499
-3.5732 <s> NAYANKKITI 0.3010
-3.5732 <s> NAYARU -0.2730
-3.5732 <s> NAYATA -0.2730
-3.7493 <s> NAYATHWA 0.6532
-3.5732 <s> NAYAWA -0.3632
-1.5732 <s> NAYAXA -0.7623
-2.7079 <s> NAYRA -0.8141
-3.5732 <s> NAYRAMPI 0.1249
-3.0961 <s> NAYRANAKAJAXA 0.1249
-3.5732 <s> NAYRANAKANIWA 0.5229
-3.5732 <s> NAYRAQATA -0.4329
-3.5732 <s> NAYRARUPUNIWA -0.2730
-3.7493 <s> NAYRIRI -0.2711
-3.4483 <s> NI 0.6767
-2.5318 <s> NINA -0.9622
-3.3514 <s> NUWALA -0.5809
-3.7493 <s> NUWAÑA 1.1614
-2.7951 <s> NÄNAKA 0.0458
-1.9105 <s> NÄNAKAXA 0.0776
-3.5732 <s> ORURO -0.3632
-3.7493 <s> PACEÑO 0.1761
-3.5732 <s> PACHA -0.2791
-3.7493 <s> PACHANIKTHTI 0.6532
-3.7493 <s> PACHANKTANWA 0.7404
-3.5732 <s> PACHAXISA -0.2430
-3.3514 <s> PAKA 0.5798
-3.5732 <s> PALASKTAWA 0.5643
-2.7493 <s> PALLA -0.9700
-3.5732 <s> PALLANAKANA -0.3010
-3.5732 <s> PALLAÑA 0.1249
-3.5732 <s> PAMPA -0.3522
-3.3514 <s> PANICHATA -0.5740
-2.7493 <s> PANKA 0.0792
-3.0961 <s> PANTALUNAJAXA 0.0872
-2.8199 <s> PANTI 0.0706
-3.7493 <s> PAOLA -0.1249
-3.2052 <s> PAQALLQU -0.2869
-3.5732 <s> PAQALLQUNI -0.2264
-2.7951 <s> PAQALLQÜRI 0.0669
-3.5732 <s> PARA 0.3245
-2.7951 <s> PARIWANA 0.0458
-3.4483 <s> PARLAM 0.6767
-3.5732 <s> PARLAMTI -0.1091
-3.7493 <s> PARLAPKI 0.3979
-3.7493 <s> PARLAPKITI 0.3979
-3.7493 <s> PARLAPKTA 0.3979
-3.7493 <s> PARLAPKTAN 0.3979
-3.7493 <s> PARLAPKTANTI 0.3979
-3.7493 <s> PARLAPKTATI 0.3979
-3.7493 <s> PARLAPKTHA 0.3979
-3.7493 <s> PARLAPKTHTI 0.3979
-2.8199 <s> PARLAPXAM 0.0483
-3.7493 <s> PARLAPXAMTI -0.0428
-3.7493 <s> PARLASKAPXATANWA 0.6532
-3.7493 <s> PARLASKAPXITI 0.3979
-3.5732 <s> PARLASKAPXIWA 0.6021
-3.7493 <s> PARLASKAPXTANTI 0.3979
-3.7493 <s> PARLASKAPXTANWA 0.3979
-3.7493 <s> PARLASKAPXTATI 0.3979
-3.5732 <s> PARLASKAPXTAWA 0.6021
-3.7493 <s> PARLASKAPXTHTI 0.3979
-3.7493 <s> PARLASKAPXTHWA 0.7782
-3.7493 <s> PARLASKITI 0.3979
-3.5732 <s> PARLASKIWA 0.6021
-3.7493 <s> PARLASKTANTI 0.3010
-3.7493 <s> PARLASKTANWA 1.0212
-3.7493 <s> PARLASKTATI 0.3979
-3.7493 <s> PARLASKTAWA 0.3979
-3.7493 <s> PARLASKTHTI 0.3979
-3.7493 <s> PARLASKTHWA 0.7782
-2.8199 <s> PARLATA 0.0706
-3.4483 <s> PARLAÑA -0.2341
-3.5732 <s> PARLISTATI 0.5643
-3.7493 <s> PARLKI 0.3979
-3.7493 <s> PARLKITI 0.3979
-3.7493 <s> PARLKTA 0.3979
-3.7493 <s> PARLKTAN 0.3979
-3.7493 <s> PARLKTANTI 0.3979
-3.7493 <s> PARLKTATI 0.3979
-3.7493 <s> PARLKTHA 0.3979
-3.7493 <s> PARLKTHTI 0.3979
-3.5732 <s> PASTILLANAKA -0.3388
-3.4483 <s> PATA -0.4994
-2.7716 <s> PATAKA -0.8491
-3.3514 <s> PAYA -0.6252
-3.5732 <s> PAYANI -0.4011
-2.7716 <s> PAYÏRI -0.1996
-3.7493 <s> PAZ -0.2936
-3.4483 <s> PELICULANAKA -0.3680
-3.5732 <s> PHALLAÑA 0.1249
-3.5732 <s> PHARA 0.1249
-3.5732 <s> PHARJITU 0.5643
-2.7493 <s> PHAXSI 0.4232
-3.4483 <s> PHAXSÜRU -0.4840
-3.5732 <s> PHAYASKIWA 0.1249
-3.5732 <s> PHAYAÑA 0.2218
-3.3514 <s> PHAYIRI -0.5528
-3.5732 <s> PHAYIRINAKAXA -0.2730
-3.5732 <s> PHICHHAÑA 0.1249
-3.5732 <s> PHICHHU -0.3274
-3.5732 <s> PHICHU -0.1761
-3.2722 <s> PHISI -0.4382
-3.7493 <s> PHISINIKTHTI 0.6532
-3.0961 <s> PHISINITATI 0.0458
-3.7493 <s> PHISINITHWA 0.6532
-3.5732 <s> PHISKHURASKIWA 0.1249
-2.8199 <s> PHISKHUÑA 0.0483
-3.3514 <s> PHISQA -0.5740
-3.5732 <s> PHISQANI -0.3388
-3.4483 <s> PHISQHA -0.2884
-3.5732 <s> PHISQHANI 0.6478
-3.5732 <s> PHISQHÏRI 0.1249
-3.4483 <s> PHISQÏRI -0.5051
-2.8199 <s> PHUCHHA 0.0706
-3.5732 <s> PHUQHAÑA 0.2218
-3.5732 <s> PHUSU 0.1249
-3.5732 <s> PHUYU 0.1249
-3.3514 <s> PICHAÑA 0.1461
-3.3514 <s> PICHIRI 0.5798
-3.3514 <s> PILPINTU -0.5740
-3.0089 <s> PIPUKANAKA 0.0726
-3.5732 <s> PIPUKANAKAXA 0.5643
-3.7493 <s> PIRAI -0.2041
-3.2052 <s> PIRQA 0.4973
-3.5732 <s> PIRWA 0.8239
-3.5732 <s> PISI 0.1249
-3.7493 <s> PISINARU -0.2218
-3.5732 <s> PISINARUWA -0.3522
-3.4483 <s> PITAÑA -0.2341
-3.4483 <s> PIÑA 0.1761
-3.7493 <s> PLATO 0.1761
-3.2722 <s> PLAY 0.1761
-3.5732 <s> POTOSIRUWA -0.3010
-3.7493 <s> PRIMARIANKTHWA 0.5441
-3.0961 <s> PULIRAMAXA 0.0872
-3.5732 <s> PUQUTA 0.1249
-3.4483 <s> PURAKA -0.5051
-2.9364 <s> PURAKAJAWA 0.1413
-3.5732 <s> PURAKAPAWA 0.1249
-3.5732 <s> PURISKIWA 0.1249
-3.5732 <s> PURITU 0.5229
-2.5189 <s> PUSI -1.0544
-3.5732 <s> PUSINI -0.4033
-3.4483 <s> PUSÏRI -0.5051
-2.0333 <s> PÄ -0.7196
-2.6032 <s> P’AKIÑA 0.0300
-2.8199 <s> P’AP’I 0.0706
-2.8199 <s> P’ASP’ATA 0.0706
-3.5732 <s> P’ASP’ATAWA 0.4771
-3.3514 <s> P’AXLA 0.6021
-3.5732 <s> P’INQASISKIWA 0.1249
-3.4483 <s> P’IQI -0.5051
-3.0961 <s> P’IQIJARAKIWA 0.0872
-3.5732 <s> P’IQIJAWA 0.1249
-3.5732 <s> P’IQIPAWA 0.1249
-3.3514 <s> P’ISAQA -0.5740
-3.0503 <s> P’ISQI -0.8016
-3.5732 <s> P’ITAÑA 0.1249
-3.2722 <s> P’ITIRI 0.5229
-2.6032 <s> P’UNKHINTAÑA 0.0300
-3.5732 <s> P’USU 0.1249
-2.7716 <s> P’UTUXSI 0.0435
-3.5732 <s> P’UYU 0.1249
-2.7951 <s> QALA 0.0458
-3.5732 <s> QALLTA -0.1249
-3.5732 <s> QALLTANXA -0.3388
-3.4483 <s> QALLTAÑA -0.2341
-3.4483 <s> QAMAQI -0.4840
-3.5732 <s> QAMASTHA -0.2218
-3.4483 <s> QAMAÑA -0.2341
-3.5732 <s> QAMI -0.2341
-3.5732 <s> QAMTHA 0.9700
-3.7493 <s> QARITAPXTANWA 0.6532
-3.4483 <s> QARIÑA -0.2341
-2.7951 <s> QARWA 0.0458
-3.4483 <s> QASAWI 0.2218
-2.7079 <s> QAWQHA -0.9581
-2.8462 <s> QAWQHASA 0.0746
-3.4483 <s> QAWRA -0.4771
-2.8199 <s> QAÑAWA 0.0706
-3.5732 <s> QHANANCHKITI 0.5643
-3.5732 <s> QHANTATIÑA -0.1761
-3.0503 <s> QHARÜRKAMA 0.0792
-2.7716 <s> QHARÜRU 0.0435
-3.5732 <s> QHARÜRUTAKI 0.1249
-3.5732 <s> QHATHITA -0.3388
-3.5732 <s> QHATHURUWA 0.1249
-2.8462 <s> QHIPA 0.0512
-3.5732 <s> QHIPANA 0.1249
-3.7493 <s> QHIPÄXA 1.1614
-2.6032 <s> QHIWIKIPAÑA 0.0300
-3.4483 <s> QHUCHA 0.6767
-3.5732 <s> QHULLIRI 0.1249
-3.3514 <s> QHULU -0.5528
-3.5732 <s> QHUMAÑA -0.1761
-3.3514 <s> QHURU -0.5809
-3.2722 <s> QHURUKUTA -0.6320
-3.5732 <s> QHURUWA 0.5643
-3.3514 <s> QILLQAM -0.5740
-3.5732 <s> QILLQAMTI -0.3590
-3.4483 <s> QILLQAPXAM -0.4994
-3.7493 <s> QILLQAPXAMTI -0.2304
-3.5732 <s> QILLQATARUSA -0.3010
-3.0961 <s> QILLQAÑA -0.3133
-3.5732 <s> QILLQAÑAJAWA 0.5229
-3.3514 <s> QILLQIRI -0.5740
-3.5732 <s> QINAYA 0.7533
-3.5732 <s> QINAYATI 0.1249
-3.5732 <s> QINAYAWA 0.1249
-3.1473 <s> QULLAÑA -0.3590
-3.3514 <s> QULLIRI 0.2788
-2.7281 <s> QULLQI -0.7713
-3.7493 <s> QULLQINIKTHTI 0.6532
-3.5732 <s> QULLU 0.1249
-3.5732 <s> QULQIXA 0.1249
-2.8199 <s> QUNQURI 0.0706
-3.4483 <s> QUNT’AM 0.6767
-3.5732 <s> QUNT’AMTI -0.3802
-2.8199 <s> QUNT’APXAM 0.0483
-3.7493 <s> QUNT’APXAMTI -0.2264
-3.5732 <s> QUNT’ASISKIWA 0.1249
-3.2722 <s> QUNUÑA -0.6320
-3.4483 <s> QUQA 0.1761
-3.7493 <s> QUÑA 1.1614
-3.5732 <s> Q’ALA 0.1249
-3.2052 <s> Q’APHA 0.4973
-3.5732 <s> Q’ARAWA 0.1249
-2.7716 <s> Q’AWACHIRA 0.0435
-2.8199 <s> Q’AYMA 0.0706
-3.7493 <s> Q’AYMAKTHA 0.3979
-3.7493 <s> Q’AYMAKTHTI 0.3010
-3.7493 <s> Q’AYMAPKTHA 0.3979
-3.7493 <s> Q’AYMAPKTHTI 0.3010
-2.8199 <s> Q’AÑU 0.0706
-3.5732 <s> Q’AÑUWA 0.5229
-2.8199 <s> Q’ILLU -0.1423
-3.5732 <s> Q’ILLUMPI -0.2730
-2.7951 <s> Q’IWIRI 0.0458
-3.4483 <s> Q’IWSA 0.2218
-2.7281 <s> Q’IXU -0.0590
-3.7493 <s> Q’IXUTI 0.1761
-3.5732 <s> Q’IXUWA -0.3590
-3.5732 <s> Q’ULLU 0.1249
-3.4483 <s> Q’UMA -0.5051
-3.7493 <s> RATUKI -0.2430
-2.8199 <s> RIXI 0.0483
-3.7493 <s> RODRIGUEZ -0.1249
-3.3514 <s> SAJUNA 0.6232
-3.7493 <s> SAK’AÑA -0.2711
-3.7493 <s> SALAR -0.0792
-3.5732 <s> SAMARASKIWA 0.1249
-3.5732 <s> SAMARAWIMANA -0.3388
-3.4483 <s> SAMI -0.2596
-3.5732 <s> SAMKASISKIWA 0.1249
-3.3514 <s> SAMKASIÑA 0.1461
-3.4483 <s> SAMSUÑA -0.2341
-3.7493 <s> SAMTI -0.2041
-3.7493 <s> SAN -0.1249
-2.6032 <s> SANKAÑA 0.0300
-3.7493 <s> SANTA -0.2553
-2.7951 <s> SAPA -0.4956
-3.5732 <s> SAPAKISKIWA 0.7270
-3.0961 <s> SAPAKISKTHWA 0.0458
-3.4483 <s> SARAM -0.4994
-3.5732 <s> SARAMTI -0.3802
-3.7493 <s> SARAPKI 0.3979
-3.7493 <s> SARAPKITI 0.3979
-3.7493 <s> SARAPKTA 0.3979
-3.7493 <s> SARAPKTAN 0.3979
-3.7493 <s> SARAPKTANTI 0.3979
-3.7493 <s> SARAPKTATI 0.3979
-3.7493 <s> SARAPKTHA 0.3979
-3.7493 <s> SARAPKTHTI 0.3979
-3.4483 <s> SARAPXAM -0.4994
-3.7493 <s> SARAPXAMTI -0.2264
-3.7493 <s> SARAPXAÑAJAKI 0.3979
-3.7493 <s> SARAPXAÑAJAKITI 0.3979
-3.7493 <s> SARAPXAÑAJATI 0.3979
-3.5732 <s> SARAPXAÑAJAWA 0.3680
-3.7493 <s> SARAPXAÑAMAKI 0.3979
-3.7493 <s> SARAPXAÑAMAKITI 0.3979
-3.7493 <s> SARAPXAÑAMATI 0.3979
-3.5732 <s> SARAPXAÑAMAWA 0.3010
-3.7493 <s> SARAPXAÑAPAKI 0.3979
-3.7493 <s> SARAPXAÑAPAKITI 0.3979
-3.7493 <s> SARAPXAÑAPATI 0.3979
-3.5732 <s> SARAPXAÑAPAWA 0.3010
-3.7493 <s> SARAPXAÑASAKI 0.3979
-3.7493 <s> SARAPXAÑASAKITI 0.3979
-3.7493 <s> SARAPXAÑASATI 0.3979
-3.5732 <s> SARAPXAÑASAWA 0.3010
-3.7493 <s> SARAPXI 0.3010
-3.7493 <s> SARAPXITI 0.3979
-3.5732 <s> SARAPXIWA 0.1249
-3.7493 <s> SARAPXTAN 0.3010
-3.7493 <s> SARAPXTANTI 0.3979
-3.7493 <s> SARAPXTANWA 0.1761
-3.7493 <s> SARAPXTATI 0.3979
-3.5732 <s> SARAPXTAWA 0.1249
-3.7493 <s> SARAPXTHA 0.3979
-3.7493 <s> SARAPXTHATI 0.1761
-3.7493 <s> SARAPXTHTI 0.3979
-3.7493 <s> SARAPXTHWA 0.1761
-3.5732 <s> SARAQASKIWA 0.1249
-3.5732 <s> SARASKIWA 0.1249
-3.7493 <s> SARASKTA 0.6990
-3.7493 <s> SARASKTHA 0.3010
-3.4483 <s> SARAÑA 0.0000
-3.7493 <s> SARAÑAJAKI 0.3979
-3.7493 <s> SARAÑAJAKITI 0.3979
-3.7493 <s> SARAÑAJATI 0.3979
-3.5732 <s> SARAÑAJAWA 0.3010
-3.7493 <s> SARAÑAMAKI 0.3979
-3.7493 <s> SARAÑAMAKITI 0.3979
-3.7493 <s> SARAÑAMATI 0.3979
-3.5732 <s> SARAÑAMAWA 0.3010
-3.7493 <s> SARAÑAPAKI 0.3979
-3.7493 <s> SARAÑAPAKITI 0.3979
-3.7493 <s> SARAÑAPATI 0.3979
-3.5732 <s> SARAÑAPAWA 0.3010
-3.7493 <s> SARAÑASAKI 0.3979
-3.7493 <s> SARAÑASAKITI 0.3979
-3.7493 <s> SARAÑASATI 0.3979
-3.5732 <s> SARAÑASAWA 0.3010
-3.5732 <s> SARAÑÄNI 0.8653
-3.5732 <s> SARI 0.3680
-3.7493 <s> SARITI 0.3979
-3.7493 <s> SARIWA 0.1761
-3.7493 <s> SARKI 0.3979
-3.5732 <s> SARKITI 0.6368
-3.7493 <s> SARKTA 0.3979
-3.7493 <s> SARKTAN 0.3979
-3.7493 <s> SARKTANTI 0.3979
-3.7493 <s> SARKTATI 0.3979
-3.7493 <s> SARKTHA 0.3979
-3.7493 <s> SARKTHTI 0.3979
-3.4483 <s> SARNAQAÑA -0.2341
-3.5732 <s> SARNAQTHA -0.3522
-3.7493 <s> SARTAN 0.3010
-3.7493 <s> SARTANTI 0.3979
-3.7493 <s> SARTANWA 0.1761
-3.5732 <s> SARTASI -0.2730
-3.5732 <s> SARTASTHA -0.2730
-3.7493 <s> SARTATI 0.3979
-3.7493 <s> SARTAWA 0.1761
-3.5732 <s> SARTHA -0.1642
-3.7493 <s> SARTHTI 0.3979
-3.7493 <s> SARTHWA 0.1761
-3.0503 <s> SARXAÑAJAWA 0.0414
-2.8462 <s> SARXAÑÄNI 0.0746
-2.6701 <s> SATA -0.9409
-3.7493 <s> SATAKI 0.3979
-3.7493 <s> SATAKITI 0.3979
-3.7493 <s> SATAKTA 0.3979
-3.7493 <s> SATAKTHA 0.3979
-3.7493 <s> SATAPKITI 0.3979
-3.7493 <s> SATAPXITI 0.3979
-3.7493 <s> SATATI 0.3979
-3.5732 <s> SATAWA 0.4260
-3.7493 <s> SATÄKTAN 0.3979
-3.7493 <s> SATÄKTANTI 0.3979
-3.7493 <s> SATÄKTATI 0.3979
-3.7493 <s> SATÄKTHTI 0.3979
-3.7493 <s> SATÄPKI 0.3979
-3.7493 <s> SATÄPKTA 0.3979
-3.7493 <s> SATÄPKTAN 0.3979
-3.7493 <s> SATÄPKTANTI 0.3979
-3.7493 <s> SATÄPKTATI 0.3979
-3.7493 <s> SATÄPKTHA 0.3979
-3.7493 <s> SATÄPKTHTI 0.3979
-3.5732 <s> SATÄPXIWA 0.3010
-3.7493 <s> SATÄPXTANTI 0.3979
-3.7493 <s> SATÄPXTANWA 0.3979
-3.7493 <s> SATÄPXTATI 0.3979
-3.5732 <s> SATÄPXTAWA 0.3010
-3.7493 <s> SATÄPXTHTI 0.3979
-3.7493 <s> SATÄPXTHWA 0.3979
-3.7493 <s> SATÄTANTI 0.3979
-3.7493 <s> SATÄTANWA 0.3979
-3.7493 <s> SATÄTATI 0.3979
-3.5732 <s> SATÄTAWA 0.3010
-3.7493 <s> SATÄTHTI 0.3979
-3.7493 <s> SATÄTHWA 0.7782
-3.3514 <s> SAWURI -0.5740
-3.3514 <s> SAXTA 0.1461
-3.4483 <s> SAYA -0.4994
-3.5732 <s> SAYASAWA -0.3522
-2.8199 <s> SAYT’AM 0.0483
-3.5732 <s> SAYT’AMTI 0.3468
-3.4483 <s> SAYT’APXAM -0.4994
-3.7493 <s> SAYT’APXAMTI 0.5006
-3.4483 <s> SAYT’AÑA 0.4393
-3.5732 <s> SAÑAXA 0.1249
-3.4483 <s> SIKU 0.6767
-3.5732 <s> SIKUWA 0.5229
-3.4483 <s> SILLP’A 0.2218
-2.8199 <s> SILLU 0.0706
-3.0961 <s> SILLUNAKAMAXA 0.0872
-2.8742 <s> SILULARAJAWA 0.0544
-3.5732 <s> SILULARAMANA -0.3522
-3.7493 <s> SINK’UÑA 1.1614
-3.4483 <s> SINTI -0.5051
-3.3514 <s> SIRIPITA -0.5740
-3.5732 <s> SIWA 0.1249
-3.4483 <s> SIWARA -0.5051
-3.2722 <s> SIWIQ’ARA 0.5441
-3.4483 <s> SIWULLA 0.2430
-3.5732 <s> SOLARUWA -0.1761
-3.5732 <s> SOPOCACHINA -0.4135
-3.7493 <s> STATION -0.2139
-3.7493 <s> SULLKÄPXTHWA -0.1549
-2.8199 <s> SUMA -0.9020
-3.7493 <s> SUMANWA 0.6990
-3.5732 <s> SUMAWA -0.3632
-2.8199 <s> SUNKHA 0.0706
-2.8199 <s> SURI 0.0706
-3.4483 <s> SUSTJASIÑA -0.2341
-3.5732 <s> SUSTJAÑA -0.1761
-2.7281 <s> SUTI 0.2576
-3.0503 <s> SUTIJAXA 0.1139
-3.5732 <s> SUTIKIWA 0.5229
-3.5732 <s> SUTIMAXA 0.5229
-3.0503 <s> SUTIPAXA 0.2788
-3.4483 <s> SUXA 0.2218
-2.7951 <s> SUXASKITI 0.0458
-3.4483 <s> SUXASKIWA 0.2218
-3.2722 <s> SUXTA -0.5374
-3.5732 <s> SUXTANI -0.3724
-3.3514 <s> SUXTÏRI -0.3216
-3.4483 <s> SUYAÑA -0.2341
-3.5732 <s> T'AMANT'ATA 0.1249
-3.7493 <s> TAE -0.1249
-3.5732 <s> TAKI 0.1249
-3.4483 <s> TAKIÑA -0.5477
-2.8199 <s> TAMURAYA 0.0706
-3.3514 <s> TANQA -0.3188
-3.5732 <s> TANSA -0.1372
-3.5732 <s> TANTA 0.1249
-3.0961 <s> TAQI -0.4771
-3.5732 <s> TAQIKUNSA -0.2730
-3.5732 <s> TARIJA -0.4654
-3.5732 <s> TARIJARU -0.3632
-3.5732 <s> TARIJARUWA -0.1761
-3.4483 <s> TATA 0.3358
-2.8742 <s> TATANAKAJAXA 0.0792
-3.3514 <s> TAWAQU -0.4279
-3.5732 <s> TAWAQUNAKAXA -0.3522
-2.8199 <s> TAYKA -0.6606
-3.5732 <s> TAYKAPAXA -0.2341
-3.5732 <s> TAYKARUSA 0.1249
-3.4483 <s> TAYKCH’I -0.4840
-3.4483 <s> TAYPI 0.6990
-2.9712 <s> TELEFERICOTA 0.1513
-3.5732 <s> TELEVISION 0.2218
-3.5732 <s> TERESANA -0.2341
-3.5732 <s> THAKHI 0.1249
-2.8199 <s> THANTHA 0.0706
-3.5732 <s> THANTHAWA 0.5229
-3.4483 <s> THAYA -0.4771
-3.5732 <s> THAYAPUNIWA 0.6021
-2.8199 <s> THAYASKITI 0.0706
-3.4483 <s> THAYASKIWA 0.2218
-3.4483 <s> THAYATI 0.6532
-3.4483 <s> THAYAWA -0.5051
-3.5732 <s> THITHI 0.1249
-3.4483 <s> THIXNI -0.5051
-3.7493 <s> THUNKUÑA 1.1614
-2.7951 <s> THUQHURI 0.0669
-3.4483 <s> THUQHUÑA 0.1761
-2.6032 <s> THUQTAÑA 0.0300
-3.4483 <s> THURU -0.5229
-3.5732 <s> THURUWA 0.5229
-2.7716 <s> THUSKHA 0.0435
-3.3514 <s> THUTHA 0.5798
-3.1473 <s> THÄ 0.0969
-3.5732 <s> TINTONA -0.2730
-3.4483 <s> TITI -0.5051
-3.3514 <s> TIWANA -0.3436
-3.4483 <s> TIWULA 0.2218
-3.5732 <s> TIXI 0.1249
-3.5732 <s> TUKUSIKIWA 0.1249
-3.5732 <s> TUKUYA -0.3388
-3.4483 <s> TUKUÑA -0.2341
-3.0961 <s> TUKUÑAJAWA 0.0458
-3.5732 <s> TUKUÑAKITI 0.1249
-2.8199 <s> TULLQA 0.0706
-2.1870 <s> TUNKA -1.2994
-3.4483 <s> TUNKÏRI 0.6990
-3.3514 <s> TUNQU 0.6021
-3.4483 <s> TUNTA -0.5051
-2.6032 <s> TUPAÑA 0.0300
-3.5732 <s> TUQIPXITUWA 0.5229
-3.5732 <s> TUQISISAKIWA -0.2341
-3.5732 <s> TUQISISKIWA 0.1249
-3.4483 <s> TUQIÑA -0.2341
-3.5732 <s> TUTA 0.1249
-2.8199 <s> TUTUKA 0.0706
-3.4483 <s> TUTUKATI -0.4771
-2.8199 <s> TUTUKAWA 0.0706
-2.7951 <s> TUXU -0.1761
-3.5732 <s> TUYUÑA -0.1761
-3.4483 <s> T’AMANT’ATA -0.4994
-3.5732 <s> T’AMATA 0.1249
-3.2052 <s> T’ANT’A -0.6618
-3.5732 <s> T’AQA -0.3144
-3.5732 <s> T’AQAWA 0.5643
-3.5732 <s> T’AXSURI -0.3802
-3.5732 <s> T’IJU 0.3010
-3.5732 <s> T’IJUSKIWA 0.1249
-2.5590 <s> T’IJUÑA 0.0401
-3.4483 <s> T’IMPHU -0.5051
-3.4483 <s> T’USU -0.5051
-3.4483 <s> UKA -0.5051
-3.3514 <s> UKAMPIRUSA 0.3802
-3.4483 <s> UKANAKA -0.5051
-3.5732 <s> UKATA -0.3522
-3.0961 <s> UKAXA 0.0872
-3.5732 <s> UKHAMARAKI 0.5229
-2.9364 <s> UKHAMAXA 0.0621
-3.4483 <s> UKJA 0.6767
-3.4483 <s> ULLAM 0.6532
-3.5732 <s> ULLAMTI -0.3802
-2.8742 <s> ULLAPXAM 0.0544
-3.7493 <s> ULLAPXAMTI -0.2304
-3.2722 <s> ULLAÑA 0.1065
-2.8199 <s> ULLUKU 0.0706
-3.4483 <s> UMA -0.4771
-3.7493 <s> UMAM 0.3010
-3.5732 <s> UMAMPI -0.3222
-3.5732 <s> UMANAKAXA 0.2218
-3.5732 <s> UMASKIWA 0.1249
-3.0503 <s> UMATA 0.0792
-3.4483 <s> UMAÑA -0.5421
-3.5732 <s> UMAÑAMAWA 0.5643
-3.5732 <s> UMAÑATAKI -0.3388
-3.1473 <s> UNCH’UKIÑA -0.2663
-3.5732 <s> UQARA 0.1249
-2.8462 <s> UQI 0.0969
-2.8462 <s> URA 0.0512
-3.5732 <s> URASA 0.5229
-3.5732 <s> URASAMANA 0.5643
-3.5732 <s> URASATI -0.0621
-3.5732 <s> URASAWA 0.0000
-3.5732 <s> URPI -0.4025
-3.4483 <s> URPU 0.2218
-3.7493 <s> URPUTI 0.1761
-3.4483 <s> URPUWA 0.2218
-2.7281 <s> URU -1.1105
-3.5732 <s> URUKIPANA 0.5229
-3.5732 <s> URUNA -0.3388
-2.7493 <s> URURI 0.4150
-3.7493 <s> URURU 0.1761
-3.4483 <s> URURÜRU -0.5051
-3.5732 <s> URUSA 0.6690
-3.5732 <s> URUTI -0.3859
-3.5732 <s> URUWA -0.3867
-3.5732 <s> USTAMA 0.5643
-3.5732 <s> USU 0.1249
-3.4483 <s> USUCHAÑA -0.2341
-3.4483 <s> USUNTAÑA -0.2341
-3.5732 <s> USUTA -0.3979
-3.7493 <s> USUTHU 0.9031
-3.7493 <s> USUTU 0.6021
-3.1473 <s> UTA 0.5975
-3.3514 <s> UTACHIRI 0.5798
-3.7493 <s> UTAJAR -0.0792
-3.5732 <s> UTAJARUWA -0.3222
-2.8742 <s> UTAJAXA 0.0792
-3.5732 <s> UTAMA -0.3388
-2.8742 <s> UTAMAXA 0.0792
-3.5732 <s> UTANA -0.3522
-3.5732 <s> UTARU -0.3522
-3.5732 <s> UTARUWA -0.3222
-3.5732 <s> UTASAWA 0.5229
-3.4483 <s> UTHURUNKU -0.4771
-3.7493 <s> UTJAPKI 0.1761
-3.7493 <s> UTJAPKITI 0.1761
-3.7493 <s> UTJAPKTA 0.3979
-3.7493 <s> UTJAPKTAN 0.1761
-3.7493 <s> UTJAPKTANTI 0.1761
-3.7493 <s> UTJAPKTATI 0.3979
-3.7493 <s> UTJAPKTHA 0.3979
-3.7493 <s> UTJAPKTHTI 0.3979
-3.7493 <s> UTJAPXITI 0.1761
-3.7493 <s> UTJAPXIWA 0.1761
-3.7493 <s> UTJAPXTANTI 0.1761
-3.7493 <s> UTJAPXTANWA 0.1761
-3.7493 <s> UTJAPXTATI 0.3979
-3.5732 <s> UTJAPXTAWA 0.3010
-3.7493 <s> UTJAPXTHTI 0.3979
-3.7493 <s> UTJAPXTHWA 0.3979
-3.4483 <s> UTJAÑA -0.2341
-3.7493 <s> UTJI 0.9542
-3.5732 <s> UTJITI 0.9379
-3.5732 <s> UTJIWA 0.6368
-3.7493 <s> UTJKI 0.1761
-3.7493 <s> UTJKITI 0.1761
-3.7493 <s> UTJKTA 0.3979
-3.7493 <s> UTJKTAN 0.1761
-3.7493 <s> UTJKTANTI 0.1761
-3.7493 <s> UTJKTATI 0.3979
-3.7493 <s> UTJKTHA 0.3979
-3.7493 <s> UTJKTHTI 0.3979
-3.7493 <s> UTJTANTI 0.1761
-3.7493 <s> UTJTANWA 0.3010
-3.7493 <s> UTJTATI 0.3979
-3.5732 <s> UTJTAWA 0.3010
-3.7493 <s> UTJTHTI 0.3979
-3.7493 <s> UTJTHWA 0.3979
-3.5732 <s> UYUNIRUWA -0.1761
-3.3514 <s> UÑCH’UKIM 0.6021
-3.4483 <s> UÑCH’UKIPXAM 0.6532
-3.5732 <s> UÑCH’UKIÑÄNITI 0.2218
-3.5732 <s> UÑCH’UKKAÑÄNITI 0.4771
-3.3514 <s> UÑISIÑA 0.2041
-2.7951 <s> UÑISKHUCHHI 0.0669
-3.5732 <s> UÑJASAWA 0.1249
-3.5732 <s> UÑJASAXA 0.1249
-3.0961 <s> UÑJASITAWA 0.0458
-3.5732 <s> UÑJIRI -0.3832
-3.7493 <s> UÑJKTHTI 0.6532
-3.7493 <s> UÑJTHWA 0.1761
-3.5732 <s> UÑT’ATAWA 0.5229
-3.4483 <s> UÑT’AÑA -0.2341
-3.5732 <s> UÑXATAÑATAKIWA 0.1249
-3.7493 <s> VARGAS -0.2922
-3.7493 <s> VILLA -0.0792
-3.7493 <s> VINO -0.1249
-3.4483 <s> WAJCHA -0.5051
-3.3514 <s> WAKA -0.5740
-2.8199 <s> WAKICHAWI 0.0483
-2.4483 <s> WALI -1.1184
-2.5318 <s> WALIKI -0.9622
-3.0503 <s> WALIKIRAKI 0.0414
-3.5732 <s> WALIKISKTATI 0.5643
-3.5732 <s> WALIKITI 0.5229
-3.7493 <s> WALIKTHTI 0.6532
-2.9712 <s> WALJA -0.8062
-2.7951 <s> WALLAQI 0.0458
-3.3514 <s> WALLPA 0.5798
-3.3514 <s> WALÜRU -0.5740
-3.4483 <s> WANAKU 0.2218
-2.7951 <s> WANK’U 0.0458
-3.0503 <s> WAQ’AQIÑA 0.1139
-3.4483 <s> WARANQA -0.1061
-2.7079 <s> WARI 0.4964
-3.4483 <s> WARMI 0.5836
-3.5732 <s> WARURT’IRIRAKIWA -0.2341
-3.4483 <s> WARÜRU -0.5051
-3.3514 <s> WASÜRU -0.5740
-3.2722 <s> WATSAPEYAÑÄNIWA 0.0669
-3.0089 <s> WAWA -0.6532
-3.5732 <s> WAWAPAXA -0.2341
-3.5732 <s> WAXT’AMA -0.3632
-3.4483 <s> WAYK’A -0.5051
-2.5732 <s> WAYNA -1.0587
-3.5732 <s> WAYNANAKAXA -0.3522
-3.3514 <s> WAYRUNQ’U -0.5740
-3.3514 <s> WAÑA 0.6021
-3.3514 <s> WIKUÑA -0.5607
-2.9712 <s> WILA 0.6532
-3.0503 <s> WILAMASIJAMPIWA 0.0792
-3.5732 <s> WILAMPI -0.2730
-3.3514 <s> WILLJTA -0.5740
-2.4940 <s> WILLKA 0.2762
-3.4483 <s> WILLKÜRU 0.2218
-3.7493 <s> WININKIRÏTHWA 0.1761
-3.4483 <s> WINTU 0.2218
-3.2722 <s> WIPHALAXA 0.1249
-3.2722 <s> WISK’ACHA 0.5441
-3.5732 <s> WIÑAYATAKIXA 0.1249
-3.3514 <s> YAKA 0.8692
-3.3514 <s> YANAPAÑA 0.1461
-3.5732 <s> YANAPI 0.3010
-2.7951 <s> YANAPIRI 0.0458
-2.8199 <s> YAPT’ITAYA 0.0706
-3.5732 <s> YAPU -0.3522
-3.4483 <s> YAPUCHIRI -0.5051
-3.4483 <s> YATICHAÑA -0.2341
-3.5732 <s> YATICHI 0.2218
-3.2722 <s> YATICHIRI 0.7659
-3.5732 <s> YATICHIRIWA 0.5229
-2.8199 <s> YATICHIRIXA 0.0706
-3.5732 <s> YATICHÄTAMA 0.5643
-3.5732 <s> YATIQAPXAÑAMAWA 0.2218
-3.5732 <s> YATIQAPXAÑAPAWA 0.2218
-3.5732 <s> YATIQAPXAÑASAWA 0.2218
-3.7493 <s> YATIQAPXTHWA -0.1549
-3.5732 <s> YATIQASKIWA 0.5229
-3.7493 <s> YATIQASKTWA -0.2041
-3.5732 <s> YATIQATASAPUNIWA 0.1249
-3.7493 <s> YATIQAWINIKTHTI 0.6990
-3.5732 <s> YATIQAWISA -0.2341
-3.4483 <s> YATIQAÑA -0.4559
-3.0961 <s> YATIQAÑAJAWA 0.3010
-3.5732 <s> YATIQAÑAMAWA 0.2218
-3.5732 <s> YATIQAÑAPAWA 0.2218
-3.5732 <s> YATIQAÑAPUNIWA 0.5229
-3.5732 <s> YATIQI 0.5229
-3.2052 <s> YATIQIRI 0.4840
-3.7493 <s> YATIQIRITHWA 0.6532
-3.5732 <s> YATIQKITI 0.4771
-3.7493 <s> YATIQTA 0.6990
-3.5732 <s> YATIQTHA 0.5229
-3.4483 <s> YATIYAWINAKA -0.4994
-2.6701 <s> YATIÑA 0.2218
-3.7493 <s> YATKTHTI 0.8129
-3.4483 <s> YUQA 0.2218
-3.7493 <s> YURIRITHWA -0.1549
-3.4483 <s> YURIÑA -0.2341
-2.8199 <s> YUSPAJARA 0.2881
-3.2722 <s> YUXCH’A 0.5643
-3.4483 <s> YÄNAKA -0.4994
-3.5732 <s> YÄQIRIXA -0.2730
-3.5732 <s> ÑAK’UTA -0.4191
-2.7951 <s> ÑIK’UTA 0.0458
-3.5732 <s> ÑIK’UTANAKANIWA 0.4771
-3.0961 <s> ÑIK’UTANAKAPAXA 0.1249
-3.7493 <s> ÑIK’UTANIWA 0.3010
-3.7493 <s> ÑIK’UTANÏTHWA -0.1549
-3.5732 <s> ÑIK’UTAWA 0.5229
-3.4483 <s> ÑUSATA 0.6532
-3.4483 <s> ÑUXU 0.1996
-0.0235 ACHACHI </s> 2.7225
-0.6021 ACHACHICALANA </s> 3.6767
-0.2041 ACHACHICALANA JAKASTHA 0.5798
-0.0706 ACHACHILA </s> 2.7473
-1.0000 ACHACHILA AWICHA 0.3010
-0.0512 ACHACHILANITHWA </s> 3.0746
-0.6021 ACHAKU </s> 3.2788
-0.1549 ACHAKU ASIRU -0.6232
-0.7270 ACHUMANINA </s> 3.5006
-0.7270 ACHUMANINA UTJAPKTHA 0.2218
-0.7270 ACHUMANINA UTJAPKTHTI 0.2218
-0.7270 ACHUMANINA UTJAPXTHTI 0.2218
-0.7270 ACHUMANINA UTJAPXTHWA 0.2218
-0.6990 ACHUQA </s> 3.3757
-0.1249 ACHUQA QASAWI 0.1249
-0.8293 AJANU </s> 3.3757
-0.2553 AJANU PARA 0.1027
-0.5863 AJANU UÑT’ATAWA 0.1549
-0.0152 AJLLIÑA </s> 2.5306
-0.8293 AKA </s> 3.3757
-0.5863 AKA PASTILLANAKA -0.4058
-0.2553 AKA UKA -0.5740
-0.6990 AKANA </s> 3.3757
-0.1249 AKANA KHAYANA 0.1461
-0.6990 AKANAKA </s> 3.3757
-0.1249 AKANAKA UKANAKA -0.5740
-0.4260 AKAXA </s> 3.0235
-0.5351 AKAXA MÄ -0.7024
-0.5351 AKAXA QILLQAÑAJAWA 0.1549
-0.6990 AKJA </s> 3.3757
-0.1249 AKJA UKJA 0.1027
-0.0512 ALALAWA </s> 3.0746
-0.1249 ALASISKIWA </s> 3.5006
-0.0669 ALASITAYA </s> 2.7225
-1.0212 ALASITAYA YAPT’ITAYA 0.3010
-1.1761 ALAXA </s> 3.6767
-0.0458 ALAXA AYNACHA -0.4314
-0.4416 ALAYA </s> 2.7473
-1.3711 ALAYA AKANA 0.3010
-0.2407 ALAYA JALSU -0.4314
-0.9294 ALAÑA </s> 3.3757
-1.2304 ALAÑA ALJAÑA -0.1549
-0.1001 ALAÑA LLUNK’USIÑA 0.0310
-0.0969 ALAÑATAKI </s> 3.3757
-0.0378 ALAÑÄNITI </s> 2.9363
-0.6368 ALCALDIARU </s> 3.5006
-0.6368 ALCALDIARU SARAPKTHA 0.2218
-0.6368 ALCALDIARU SARAPKTHTI 0.2218
-0.6368 ALCALDIARU SARAPXTHTI 0.2218
-0.3010 ALCALDIARUWA </s> 3.5006
-0.4771 ALCALDIARUWA SARAPXTHA 0.3979
-0.1761 ALIAGA </s> 3.6767
-0.6990 ALIQATA </s> 3.3757
-0.1249 ALIQATA JANK’AKI 0.4867
-0.6990 ALIRI </s> 3.3757
-0.1249 ALIRI ALJIRI -0.5740
-0.2430 ALJAÑA </s> 3.3757
-0.5441 ALJAÑA AMTAÑA -0.1549
-0.6990 ALJIRI </s> 3.3757
-0.1249 ALJIRI ANATIRI -0.9605
-0.6990 ALLCHHI </s> 3.3757
-0.1249 ALLCHHI WAWA -0.9950
-0.6990 ALLPACHU </s> 3.3757
-0.1249 ALLPACHU ALPAQA -0.5740
-0.6990 ALPAQA </s> 3.3757
-0.1249 ALPAQA ANU -0.9420
-0.1761 ALTHA </s> 3.6767
-0.0152 ALT’AÑA </s> 2.5306
-0.4523 ALWA </s> 2.7225
-0.5035 ALWA URASATI -0.7434
-0.5035 ALWA URASAWA -0.6812
-0.4260 ALWAXA </s> 3.5006
-0.3010 ALWAXA PUSI -0.5686
-0.8016 AMARU </s> 3.5006
-0.1027 AMARU AÑATHUYA 0.1027
-0.7404 AMP </s> 3.6767
-0.1383 AMP SUMA -0.7927
-0.7782 AMPARA </s> 3.3757
-0.7782 AMPARA LUK’ANA -0.4260
-0.2041 AMPARA MUJLLI 0.1027
-0.0458 AMPARANAKANITAWA </s> 3.0235
-0.2430 AMTAÑA </s> 3.3757
-0.5441 AMTAÑA ANATAÑA -0.2527
-0.1249 AMUKISKAÑAWA </s> 3.5006
-0.7782 AMUKT’AM </s> 3.5006
-0.1091 AMUKT’AM PARLAM -0.3445
-0.1761 AMUKT’AMTI </s> 3.6767
-0.0248 AMUKT’APXAM </s> 2.7473
-0.0263 AMUKT’APXAMTI </s> 2.7736
-0.0414 AMUYKTHTI </s> 2.9777
-0.4260 AMUYUNAKA </s> 3.5006
-0.3010 AMUYUNAKA KATUQIRIXA -0.3010
-0.6990 ANATA </s> 3.3757
-0.1249 ANATA ACHUQA -0.5740
-0.0969 ANATAPKI </s> 3.3757
-0.0969 ANATAPKITI </s> 3.3757
-0.0969 ANATAPKTA </s> 3.3757
-0.0969 ANATAPKTAN </s> 3.3757
-0.0969 ANATAPKTANTI </s> 3.3757
-0.0969 ANATAPKTATI </s> 3.3757
-0.0969 ANATAPKTHA </s> 3.3757
-0.0969 ANATAPKTHTI </s> 3.3757
-0.0512 ANATAPXARAKIWA </s> 3.0746
-0.0969 ANATAPXITI </s> 3.3757
-0.0792 ANATAPXIWA </s> 3.2788
-0.0969 ANATAPXTANTI </s> 3.3757
-0.0414 ANATAPXTANWA </s> 2.9777
-0.0969 ANATAPXTATI </s> 3.3757
-0.0378 ANATAPXTAWA </s> 2.9363
-0.0969 ANATAPXTHTI </s> 3.3757
-0.0414 ANATAPXTHWA </s> 2.9777
-0.0512 ANATASKTHWA </s> 3.0746
-0.6767 ANATAÑA </s> 3.3757
-0.9777 ANATAÑA APARAÑA -0.1549
-0.1996 ANATAÑA MUNTHWA 0.7132
-0.1249 ANATAÑÄNI </s> 3.5006
-0.4075 ANATIRI </s> 2.7225
-0.2314 ANATIRI WILA -1.0792
-0.0969 ANATITI </s> 3.3757
-0.0378 ANATIWA </s> 2.9363
-0.0969 ANATKI </s> 3.3757
-0.0969 ANATKITI </s> 3.3757
-0.0969 ANATKTA </s> 3.3757
-0.0969 ANATKTAN </s> 3.3757
-0.0969 ANATKTANTI </s> 3.3757
-0.0969 ANATKTATI </s> 3.3757
-0.0969 ANATKTHA </s> 3.3757
-0.0969 ANATKTHTI </s> 3.3757
-0.0969 ANATTANTI </s> 3.3757
-0.0414 ANATTANWA </s> 2.9777
-0.0969 ANATTATI </s> 3.3757
-0.0378 ANATTAWA </s> 2.9363
-0.0969 ANATTHA </s> 3.3757
-0.0969 ANATTHTI </s> 3.3757
-0.0414 ANATTHWA </s> 2.9777
-0.6990 ANCHA </s> 3.3757
-0.1249 ANCHA SINTI -0.5740
-1.5315 ANGELICA </s> 3.6767
-0.0196 ANGELICA VARGAS -0.2944
-0.7782 ANQA </s> 3.5006
-0.1091 ANQA PIRQA -0.4058
-0.4260 ANQANA </s> 3.5006
-0.3010 ANQANA JAKASIRITHWA -0.2341
